svm_type c_svc
kernel_type rbf
gamma 0.0625
nr_class 2
total_sv 1036
rho 0.3844725232111825
label 1 -1
nr_sv 517 519
SV
0.015625 1:1.0 2:-0.5777777777777777 3:-0.21772639691714835 4:0.1979725700655932 5:-0.9041754363800426 6:-0.9888995215311005 7:-0.24902274619186615 8:-0.9974692001298291 9:-0.998031299075492 
0.015625 1:1.0 2:-0.5777777777777777 3:-0.21772639691714835 4:0.1979725700655932 5:-0.9041754363800426 6:-0.9888995215311005 7:0.9756637901211729 8:-0.9876789903265787 9:-0.9822992337694801 
0.015625 1:1.0 2:-0.5777777777777777 3:-0.21772639691714835 4:0.1979725700655932 5:-0.9041754363800426 6:-0.9888995215311005 7:0.9757076589373757 8:-0.9850149876590276 9:-0.9883392943215856 
0.015625 1:1.0 2:-0.5777777777777777 3:-0.5414258188824663 4:-0.0810971973762672 5:-0.890595008916322 6:-0.9888995215311005 7:0.3381582096762836 8:-0.9925594432135324 9:-0.9945667362901589 
0.015625 1:1.0 2:-0.5777777777777777 3:-0.5414258188824663 4:-0.0810971973762672 5:-0.890595008916322 6:-0.9888995215311005 7:-0.24898083261128134 8:-0.9993206819837771 9:-0.9984634723849628 
0.015625 1:1.0 2:-0.5777777777777777 3:-0.5414258188824663 4:-0.0810971973762672 5:-0.890595008916322 6:-0.9888995215311005 7:0.7127273711214479 8:-0.9995111581745071 9:-0.9989705982610207 
0.015625 1:1.0 2:-0.5777777777777777 3:-0.5414258188824663 4:-0.0810971973762672 5:-0.890595008916322 6:-0.9888995215311005 7:0.6916828036969258 8:-0.998247088908754 9:-0.9946592309467984 
0.015625 1:1.0 2:-0.5777777777777777 3:-0.5414258188824663 4:-0.0810971973762672 5:-0.890595008916322 6:-0.9888995215311005 7:0.36012663141631407 8:-0.9985334691955158 9:-0.9970337920456988 
0.015625 1:1.0 2:-0.5777777777777777 3:-0.5414258188824663 4:-0.0810971973762672 5:-0.890595008916322 6:-0.9888995215311005 7:-0.052076975423068994 8:-0.9987479214102536 9:-0.9967028844378937 
0.015625 1:1.0 2:-0.5777777777777777 3:-0.9499036608863198 4:-0.3452593917710197 5:-0.7853210638312207 6:-0.9888995215311005 7:0.7474868959960768 8:-0.9995204821838435 9:-0.9626839876200686 
0.015625 1:1.0 2:-0.5777777777777777 3:-0.9499036608863198 4:-0.3452593917710197 5:-0.7853210638312207 6:-0.9888995215311005 7:0.7476387504346353 8:-0.9996809883445634 9:-0.9998094291126134 
0.015625 1:1.0 2:-0.5777777777777777 3:-0.4335260115606936 4:-0.004174120453190211 5:-0.7240927820267129 6:-0.9888995215311005 7:0.42856865575452296 8:-0.9969790236389997 9:-0.9970345894134284 
0.015625 1:1.0 2:-0.5777777777777777 3:-0.4335260115606936 4:-0.004174120453190211 5:-0.7240927820267129 6:-0.9888995215311005 7:-0.24886911646081056 8:-0.9985507852128549 9:-0.9984220092630209 
0.015625 1:1.0 2:-0.5777777777777777 3:-0.4335260115606936 4:-0.004174120453190211 5:-0.7240927820267129 6:-0.9888995215311005 7:0.3381406542498606 8:-0.9918414944946273 9:-0.9926745826676974 
0.015625 1:1.0 2:-0.5777777777777777 3:-0.4335260115606936 4:-0.004174120453190211 5:-0.7240927820267129 6:-0.9888995215311005 7:0.42767552343525495 8:-0.9989210815836445 9:-0.9989155798876748 
0.015625 1:1.0 2:-0.5777777777777777 3:-0.4335260115606936 4:-0.004174120453190211 5:-0.7240927820267129 6:-0.9888995215311005 7:0.6901467038849167 8:-0.9959220805806488 9:-0.9962906453216641 
0.015625 1:1.0 2:-0.5777777777777777 3:-0.8535645472061657 4:-0.13655336911150862 5:-0.6369314600453893 6:-0.9888995215311005 7:0.4964006290245342 8:-0.9966993033589069 9:-0.9968392343196639 
0.015625 1:1.0 2:-0.5777777777777777 3:-0.8535645472061657 4:-0.13655336911150862 5:-0.6369314600453893 6:-0.9888995215311005 7:0.7481015553637105 8:-0.9948371654942886 9:-0.9965394240533152 
0.015625 1:1.0 2:-0.5777777777777777 3:-0.8535645472061657 4:-0.13655336911150862 5:-0.6369314600453893 6:-0.9888995215311005 7:0.7575378165088813 8:-0.9954711981291657 9:-0.9988079352441719 
0.015625 1:1.0 2:-0.5777777777777777 3:-0.8535645472061657 4:-0.13655336911150862 5:-0.6369314600453893 6:-0.9888995215311005 7:0.7610491212363035 8:-0.9963203489794477 9:-0.9933922136243832 
0.015625 1:1.0 2:-0.5777777777777777 3:-0.8535645472061657 4:-0.13655336911150862 5:-0.6369314600453893 6:-0.9888995215311005 7:0.49723648676509735 8:-0.9993673020304593 9:-0.9992807743078549 
0.015625 1:1.0 2:-0.5777777777777777 3:-0.8535645472061657 4:-0.13655336911150862 5:-0.6240873263105382 6:-0.9888995215311005 7:0.4744344017128066 8:-0.9685061631282134 9:-0.9626720271041239 
0.015625 1:1.0 2:-0.5777777777777777 3:-0.19460500963391136 4:-0.8753726893261777 5:-0.514599410367269 6:-0.9888995215311005 7:0.36012663141631407 8:-0.9969630396229944 9:-0.9958194009934405 
0.015625 1:1.0 2:-0.5777777777777777 3:-0.19460500963391136 4:-0.8753726893261777 5:-0.514599410367269 6:-0.9888995215311005 7:0.428432601199745 8:-0.9987878814502669 9:-0.9986660037882941 
0.015625 1:1.0 2:-0.5777777777777777 3:-0.19460500963391136 4:-0.8753726893261777 5:-0.514599410367269 6:-0.9888995215311005 7:0.4278910162945968 8:-0.9984415611034853 9:-0.9981724331636402 
0.015625 1:1.0 2:-0.5777777777777777 3:-0.19460500963391136 4:-0.8753726893261777 5:-0.514599410367269 6:-0.9888995215311005 7:0.4298896993984225 8:-0.9951914778490729 9:-0.9940707735623161 
0.015625 1:1.0 2:-0.5777777777777777 3:-0.052023121387283267 4:0.516994633273703 5:-0.4528742379410563 6:-0.9888995215311005 7:0.4284589343393794 8:-0.9982417609034189 9:-0.9987648773867708 
0.015625 1:1.0 2:-0.5777777777777777 3:-0.052023121387283267 4:0.516994633273703 5:-0.4528742379410563 6:-0.9888995215311005 7:0.42767552343525495 8:-0.9969363995963189 9:-0.9980615990492188 
0.015625 1:1.0 2:-0.5777777777777777 3:-0.052023121387283267 4:0.516994633273703 5:-0.4528742379410563 6:-0.9888995215311005 7:0.428432601199745 8:-0.998461541123492 9:-0.999006479808855 
0.015625 1:1.0 2:-0.5777777777777777 3:-0.052023121387283267 4:0.516994633273703 5:-0.4528742379410563 6:-0.9888995215311005 7:0.4298896993984225 8:-0.9971661698263952 9:-0.9978670413231839 
0.015625 1:1.0 2:-0.5777777777777777 3:-0.052023121387283267 4:0.516994633273703 5:-0.4528742379410563 6:-0.9888995215311005 7:0.997827496230304 8:-0.9744255770555119 9:-0.9988278694374132 
0.015625 1:1.0 2:-0.5777777777777777 3:-0.052023121387283267 4:0.516994633273703 5:-0.4528742379410563 6:-0.9888995215311005 7:0.23171529016713133 8:-0.9947252773822515 9:-0.999648360831224 
0.015625 1:1.0 2:-0.5777777777777777 3:-0.8843930635838151 4:-0.18723911747167565 5:-0.40471936165790556 6:-0.9888995215311005 7:0.4950620277597835 8:-0.9869090935556565 9:-0.9840143717559592 
0.015625 1:1.0 2:-0.5777777777777777 3:-0.9499036608863198 4:-0.3452593917710197 5:-0.37443101869973316 6:-0.9888995215311005 7:0.9755586572556108 8:-0.974585417215565 9:-0.9802228882014693 
0.015625 1:1.0 2:-0.5777777777777777 3:-0.9499036608863198 4:-0.3452593917710197 5:-0.08091009450850506 6:-0.9888995215311005 7:0.49199180312123825 8:-0.982484185124854 9:-0.9832241803358752 
0.015625 1:1.0 2:-0.7777777777777778 3:-0.22157996146435455 4:-0.8795468097793679 5:-0.07287438687146996 6:-1.0 7:0.2943135519347979 8:-0.9978421605032862 9:-0.9896669115914543 
0.015625 1:1.0 2:-0.5777777777777777 3:-0.5606936416184971 4:-0.9320214669051878 5:-0.03727971406171082 6:-0.9888995215311005 7:0.7573403179616232 8:-0.998401601063472 9:-0.9808639718561086 
0.015625 1:1.0 2:-0.5777777777777777 3:-0.5606936416184971 4:-0.9320214669051878 5:-0.03727971406171082 6:-0.9888995215311005 7:0.7488057474061016 8:-0.9971228797830475 9:-0.9896669115914543 
0.015625 1:1.0 2:-0.5777777777777777 3:-0.9499036608863198 4:-0.3452593917710197 5:0.10658650833303662 6:-0.9888995215311005 7:-0.052076975423068994 8:-0.9979487206099883 9:-0.9975943415596433 
0.015625 1:1.0 2:-0.5777777777777777 3:-0.9499036608863198 4:-0.3452593917710197 5:0.10658650833303662 6:-0.9888995215311005 7:0.2301745737168588 8:-0.9949783576356688 9:-0.9927862141498485 
0.015625 1:1.0 2:-0.5777777777777777 3:-0.9499036608863198 4:-0.3452593917710197 5:0.10658650833303662 6:-0.9888995215311005 7:0.31707392309947946 8:-0.9765567791895529 9:-0.9915805941426163 
0.015625 1:1.0 2:-0.5777777777777777 3:-0.9499036608863198 4:-0.3452593917710197 5:0.10658650833303662 6:-0.9888995215311005 7:0.49723648676509735 8:-0.9985348011968496 9:-0.9980711674619746 
0.015625 1:1.0 2:-0.5777777777777777 3:-0.9499036608863198 4:-0.3452593917710197 5:0.10658650833303662 6:-0.9888995215311005 7:0.690124759601888 8:-0.9991208817837108 9:-0.9987377668839627 
0.015625 1:1.0 2:-0.5777777777777777 3:-0.8921001926782274 4:-0.2081097197376267 5:0.14214683596576272 6:-0.9888995215311005 7:0.9750712747295434 8:-0.9576423602499399 9:-0.9797157623254114 
0.015625 1:1.0 2:-0.5777777777777777 3:-0.8921001926782274 4:-0.2081097197376267 5:0.14214683596576272 6:-0.9888995215311005 7:0.4294705657870026 8:-0.9974692001298291 9:-0.9972283497717336 
0.015625 1:1.0 2:-0.5777777777777777 3:-0.8921001926782274 4:-0.2081097197376267 5:0.14214683596576272 6:-0.9888995215311005 7:0.9967544207902006 8:-0.9513819539811947 9:-0.9912696207280526 
0.015625 1:1.0 2:-0.5777777777777777 3:-0.8921001926782274 4:-0.9833035181872392 5:0.14217054325610423 6:-0.9888995215311005 7:0.9750712747295434 8:-0.9666999693196137 9:-0.9860468620988393 
0.015625 1:1.0 2:-0.5777777777777777 3:-0.8921001926782274 4:-0.9833035181872392 5:0.14217054325610423 6:-0.9888995215311005 7:0.4294705657870026 8:-0.9981978048594043 9:-0.997238715552219 
0.015625 1:1.0 2:-0.5777777777777777 3:-0.8921001926782274 4:-0.9833035181872392 5:0.14217054325610423 6:-0.9888995215311005 7:0.9967544207902006 8:-0.9746653372955916 9:-0.996057813944606 
0.015625 1:1.0 2:-0.5777777777777777 3:-0.8921001926782274 4:-0.9833035181872392 5:0.14217054325610423 6:-0.9888995215311005 7:0.4950620277597835 8:-0.9996403623038833 9:-0.9994410452215148 
0.015625 1:1.0 2:-0.5777777777777777 3:-0.8921001926782274 4:-0.9833035181872392 5:0.14218427119559673 6:-0.9888995215311005 7:0.9750712747295434 8:-0.9638761264920095 9:-0.9870260296708506 
0.015625 1:1.0 2:-0.5777777777777777 3:-0.8921001926782274 4:-0.9833035181872392 5:0.14218427119559673 6:-0.9888995215311005 7:0.4294705657870026 8:-0.9978421605032862 9:-0.9966941133928675 
0.015625 1:1.0 2:-0.5777777777777777 3:-0.8921001926782274 4:-0.9833035181872392 5:0.14218427119559673 6:-0.9888995215311005 7:0.9967544207902006 8:-0.9520479546480826 9:-0.9913892258875002 
0.015625 1:1.0 2:-0.5777777777777777 3:-0.8921001926782274 4:-0.9833035181872392 5:0.14218427119559673 6:-0.9888995215311005 7:0.4950620277597835 8:-0.9997136223772409 9:-0.9995550688068549 
0.015625 1:1.0 2:-0.5777777777777777 3:-0.8921001926782274 4:-0.9833035181872392 5:0.14228239303617585 6:-0.9888995215311005 7:0.9750712747295434 8:-0.9646753272922748 9:-0.9923883276527528 
0.015625 1:1.0 2:-0.5777777777777777 3:-0.8921001926782274 4:-0.9833035181872392 5:0.14228239303617585 6:-0.9888995215311005 7:0.4294705657870026 8:-0.9978421605032862 9:-0.9966941133928675 
0.015625 1:1.0 2:-0.5777777777777777 3:-0.8921001926782274 4:-0.9833035181872392 5:0.14228239303617585 6:-0.9888995215311005 7:0.9967544207902006 8:-0.9520479546480826 9:-0.9913892258875002 
0.015625 1:1.0 2:-0.5777777777777777 3:-0.8921001926782274 4:-0.9833035181872392 5:0.14228239303617585 6:-0.9888995215311005 7:0.4950620277597835 8:-0.9997136223772409 9:-0.9995550688068549 
0.015625 1:1.0 2:-0.5777777777777777 3:-0.8921001926782274 4:-0.9833035181872392 5:0.14229541178322247 6:-0.9888995215311005 7:0.9750712747295434 8:-0.9680319706533892 9:-0.991197857632384 
0.015625 1:1.0 2:-0.5777777777777777 3:-0.8921001926782274 4:-0.9833035181872392 5:0.14229541178322247 6:-0.9888995215311005 7:0.4294705657870026 8:-0.9974026000631403 9:-0.9957715589296614 
0.015625 1:1.0 2:-0.5777777777777777 3:-0.8921001926782274 4:-0.9833035181872392 5:0.14229541178322247 6:-0.9888995215311005 7:0.9967544207902006 8:-0.9480519506467558 9:-0.9906715949308144 
0.015625 1:1.0 2:-0.5777777777777777 3:-0.8921001926782274 4:-0.9833035181872392 5:0.14229541178322247 6:-0.9888995215311005 7:0.4950620277597835 8:-0.9996803223438966 9:-0.9994458294278926 
0.015625 1:1.0 2:-0.5777777777777777 3:-0.4373795761078998 4:-0.009540846750149101 5:0.15975410879508556 6:-0.9888995215311005 7:0.4950620277597835 8:-0.9946620073188971 9:-0.9916922256247676 
0.015625 1:1.0 2:-0.5777777777777777 3:-0.4373795761078998 4:-0.009540846750149101 5:0.15975410879508556 6:-0.9888995215311005 7:0.6900150381867447 8:-0.9970362996963521 9:-0.995270014627711 
0.015625 1:1.0 2:-0.5777777777777777 3:-0.4373795761078998 4:-0.009540846750149101 5:0.15975410879508556 6:-0.9888995215311005 7:0.6899711496206873 8:-0.9983636390254594 9:-0.996583279278446 
0.015625 1:1.0 2:-0.5777777777777777 3:-0.4373795761078998 4:-0.009540846750149101 5:0.15975410879508556 6:-0.9888995215311005 7:-0.24970499395122847 8:-0.999493176156501 9:-0.9991819007093782 
0.015625 1:1.0 2:-0.5777777777777777 3:-0.4373795761078998 4:-0.009540846750149101 5:0.15975410879508556 6:-0.9888995215311005 7:-0.24886911646081056 8:-0.9990942417570353 9:-0.9982441962593088 
0.015625 1:1.0 2:-0.5777777777777777 3:-0.4373795761078998 4:-0.009540846750149101 5:0.15991747634070674 6:-0.9888995215311005 7:0.49449367082934015 8:-0.9884448910934996 9:-0.9831229146342095 
0.015625 1:1.0 2:-0.8666666666666667 3:0.5414258188824663 4:0.7817531305903398 5:0.17217323362830506 6:-0.9601913875598086 7:-0.1430138451013122 8:-0.9906759933275737 9:-0.9826325334804743 
0.015625 1:1.0 2:-0.8666666666666667 3:0.20231213872832376 4:0.6034585569469291 5:0.29135890036266576 6:-1.0 7:-0.14239525770701622 8:-0.999998870462869 9:-0.9939280447387085 
0.015625 1:1.0 2:-0.5777777777777777 3:-0.8921001926782274 4:-0.20095408467501485 5:0.29527364266517964 6:-0.9888995215311005 7:-0.45097773844762445 8:-0.9977888804499352 9:-0.9973535365052888 
0.015625 1:1.0 2:-0.5777777777777777 3:-0.8921001926782274 4:-0.20095408467501485 5:0.29527364266517964 6:-0.9888995215311005 7:0.36012663141631407 8:-0.9972360998964184 9:-0.9933826452116273 
0.015625 1:1.0 2:-0.5777777777777777 3:-0.8921001926782274 4:-0.20095408467501485 5:0.29527364266517964 6:-0.9888995215311005 7:0.997827496230304 8:-0.6683316705538883 9:-0.9801463408994229 
0.015625 1:1.0 2:-0.5777777777777777 3:-0.8921001926782274 4:-0.20095408467501485 5:0.29527364266517964 6:-0.9888995215311005 7:0.49723648676509735 8:-0.9983416610034521 9:-0.9950371832506529 
0.015625 1:1.0 2:-0.5777777777777777 3:-0.8921001926782274 4:-0.20095408467501485 5:0.29527364266517964 6:-0.9888995215311005 7:0.42964612005123204 8:-0.9961305387893846 9:-0.9944415495566037 
0.015625 1:1.0 2:-0.8666666666666667 3:0.5452793834296725 4:0.8449612403100775 5:0.3299383108950753 6:-0.9601913875598086 7:-0.1430138451013122 8:-0.9886779913269104 9:-0.9803440880963763 
0.015625 1:1.0 2:-0.5777777777777777 3:-0.8805394990366089 4:-0.9815146094215862 5:0.3303634717665169 6:-0.9888995215311005 7:-0.3631788617427757 8:-0.9990316376943479 9:-0.9986556380078087 
0.015625 1:1.0 2:-0.5777777777777777 3:-0.8805394990366089 4:-0.9815146094215862 5:0.3303634717665169 6:-0.9888995215311005 7:-0.24886911646081056 8:-0.9993606420237904 9:-0.9989522588032388 
0.015625 1:1.0 2:-0.5777777777777777 3:-0.8805394990366089 4:-0.9815146094215862 5:0.3303634717665169 6:-0.9888995215311005 7:0.7125518168572185 8:-0.9992647379277586 9:-0.9989004299008114 
0.015625 1:1.0 2:-0.5777777777777777 3:-0.8805394990366089 4:-0.9815146094215862 5:0.3303634717665169 6:-0.9888995215311005 7:-0.45097773844762445 8:-0.9992807219437638 9:-0.9990710665949567 
0.015625 1:1.0 2:-0.5777777777777777 3:-0.8805394990366089 4:-0.9815146094215862 5:0.3303634717665169 6:-0.9888995215311005 7:-0.3847062231437841 8:-0.9988991035616371 9:-0.9981030621711605 
0.015625 1:1.0 2:-0.5777777777777777 3:-0.9421965317919075 4:-0.2641621943947525 5:0.3568482636664043 6:-0.9888995215311005 7:0.27239975609851075 8:-0.9984682011301608 9:-0.9992783822046659 
0.015625 1:1.0 2:-0.5777777777777777 3:-0.9421965317919075 4:-0.2641621943947525 5:0.3568482636664043 6:-0.9888995215311005 7:0.2723997714595088 8:-0.9995910782545335 9:-0.9993517400357939 
0.015625 1:1.0 2:-0.5777777777777777 3:-0.9421965317919075 4:-0.2641621943947525 5:0.3568482636664043 6:-0.9888995215311005 7:0.9969078310784261 8:-0.9900432926940304 9:-0.9992137954185643 
0.015625 1:1.0 2:-0.5777777777777777 3:-0.9421965317919075 4:-0.2641621943947525 5:0.3568482636664043 6:-0.9888995215311005 7:-0.24970499395122847 8:-0.997855480516624 9:-0.9966375002840623 
0.015625 1:1.0 2:-0.8666666666666667 3:0.9267822736030829 4:0.8556946929039952 5:0.36112808810885366 6:-0.9601913875598086 7:-0.1430138451013122 8:-0.9876190502665588 9:-0.9801359751189374 
0.015625 1:1.0 2:-0.5777777777777777 3:-0.5606936416184971 4:-0.9320214669051878 5:0.3612639491188867 6:-0.9888995215311005 7:0.4284589343393794 8:-0.9976024002632067 9:-0.9965561687756379 
0.015625 1:1.0 2:-0.5777777777777777 3:-0.5606936416184971 4:-0.9320214669051878 5:0.3612639491188867 6:-0.9888995215311005 7:0.36012663141631407 8:-0.9971954738557383 9:-0.9961391454530305 
0.015625 1:1.0 2:-0.5777777777777777 3:-0.5606936416184971 4:-0.9320214669051878 5:0.3612639491188867 6:-0.9888995215311005 7:0.7487164780627409 8:-0.9826839853249204 9:-0.9875618607851759 
0.015625 1:1.0 2:-0.5777777777777777 3:-0.5606936416184971 4:-0.9320214669051878 5:0.3612639491188867 6:-0.9888995215311005 7:-0.2291168676137031 8:-0.9983056969674402 9:-0.9983781540378901 
0.015625 1:1.0 2:-0.5777777777777777 3:-0.5606936416184971 4:-0.9320214669051878 5:0.3612639491188867 6:-0.9888995215311005 7:-0.2496632998134739 8:-0.9993040319671049 9:-0.9991675480902444 
0.015625 1:1.0 2:-0.5777777777777777 3:-0.464354527938343 4:-0.023255813953488413 5:0.3739595576928816 6:-0.9888995215311005 7:0.228708925367185 8:-0.9970143216743448 9:-0.9953537382393244 
0.015625 1:1.0 2:-0.5777777777777777 3:-0.464354527938343 4:-0.023255813953488413 5:0.3739595576928816 6:-0.9888995215311005 7:0.2301745734974161 8:-0.997298037958439 9:-0.9988039484055237 
0.015625 1:1.0 2:-0.5777777777777777 3:-0.464354527938343 4:-0.023255813953488413 5:0.3739595576928816 6:-0.9888995215311005 7:0.22875281283602833 8:-0.9941704988267339 9:-0.9947660782225717 
0.015625 1:1.0 2:-0.5777777777777777 3:-0.464354527938343 4:-0.023255813953488413 5:0.3739595576928816 6:-0.9888995215311005 7:0.22936066859815196 8:-0.9944055970621453 9:-0.9965178951246146 
0.015625 1:1.0 2:-0.5777777777777777 3:-0.464354527938343 4:-0.023255813953488413 5:0.3739595576928816 6:-0.9888995215311005 7:0.2291412259873078 8:-0.9954012680591425 9:-0.9968073396104778 
0.015625 1:1.0 2:-0.5777777777777777 3:-0.464354527938343 4:-0.023255813953488413 5:0.3739595576928816 6:-0.9888995215311005 7:0.23150241504131208 8:-0.982217784858099 9:-0.9982976198971953 
0.015625 1:1.0 2:-0.5777777777777777 3:-0.464354527938343 4:-0.023255813953488413 5:0.3739595576928816 6:-0.9888995215311005 7:0.23065975501189562 8:-0.9948118574689468 9:-0.9925470038309533 
0.015625 1:1.0 2:-0.5777777777777777 3:0.20231213872832376 4:0.6034585569469291 5:0.39128634490976877 6:-0.9888995215311005 7:0.7125518168572185 8:-0.9986213812835449 9:-0.9978550808072392 
0.015625 1:1.0 2:-0.5777777777777777 3:0.20231213872832376 4:0.6034585569469291 5:0.39128634490976877 6:-0.9888995215311005 7:-0.24886911646081056 8:-0.9987745614369291 9:-0.9983869250829163 
0.015625 1:1.0 2:-0.5777777777777777 3:0.20231213872832376 4:0.6034585569469291 5:0.39128634490976877 6:-0.9888995215311005 7:-0.1884321668784954 8:-0.9990809217436976 9:-0.9980201359272769 
0.015625 1:1.0 2:-0.5777777777777777 3:0.20231213872832376 4:0.6034585569469291 5:0.39128634490976877 6:-0.9888995215311005 7:-0.24898083261128134 8:-0.9981618408233924 9:-0.9969197684603587 
0.015625 1:1.0 2:-0.5777777777777777 3:0.20231213872832376 4:0.6034585569469291 5:0.39128634490976877 6:-0.9888995215311005 7:-0.24886911646081056 8:-0.9989277415903134 9:-0.9985240723324162 
0.015625 1:1.0 2:-0.5777777777777777 3:0.20231213872832376 4:0.6034585569469291 5:0.39128634490976877 6:-0.9888995215311005 7:-0.18830050118032315 8:-0.984069266712047 9:-0.99237158293043 
0.015625 1:1.0 2:-0.5777777777777777 3:0.9653179190751444 4:0.9260584376863448 5:0.3960549042607928 6:-0.9888995215311005 7:0.3381582096762836 8:-0.99360639626188 9:-0.9938770132040109 
0.015625 1:1.0 2:-0.5777777777777777 3:0.9653179190751444 4:0.9260584376863448 5:0.3960549042607928 6:-0.9888995215311005 7:-0.1884740804590802 8:-0.9994006020638037 9:-0.9978479044976722 
0.015625 1:1.0 2:-0.5777777777777777 3:0.9653179190751444 4:0.9260584376863448 5:0.3960549042607928 6:-0.9888995215311005 7:0.95336837881416 8:-0.9988544815169557 9:-0.9976684967585009 
0.015625 1:1.0 2:-0.5777777777777777 3:0.9653179190751444 4:0.9260584376863448 5:0.3960549042607928 6:-0.9888995215311005 7:0.27305831939320013 8:-0.9910556137076998 9:-0.9983941013924831 
0.015625 1:1.0 2:-0.5777777777777777 3:0.9653179190751444 4:0.9260584376863448 5:0.3960549042607928 6:-0.9888995215311005 7:0.4294705657870026 8:-0.9980419607033526 9:-0.9982426015238495 
0.015625 1:1.0 2:-0.5777777777777777 3:0.9653179190751444 4:0.9260584376863448 5:0.3960549042607928 6:-0.9888995215311005 7:0.22956034182385832 8:-0.9728271754549812 9:-0.9951209068622663 
0.015625 1:-1.0 2:0.7777777777777777 3:-0.8766859344894027 4:-0.17352415026833634 5:0.4093446134782126 6:-1.0 7:-0.4704071846969514 8:1.0 9:0.19760646154913397 
0.015625 1:1.0 2:-0.5777777777777777 3:0.9653179190751444 4:0.924865831842576 5:0.41765082737683445 6:-0.9888995215311005 7:0.7575378165088813 8:-0.9850149876590276 9:-0.9967714580626436 
0.015625 1:1.0 2:-0.5777777777777777 3:0.9653179190751444 4:0.924865831842576 5:0.41765082737683445 6:-0.9888995215311005 7:0.9755562433844776 8:-0.9922810549347733 9:-0.9981524989703989 
0.015625 1:1.0 2:-0.5777777777777777 3:0.9653179190751444 4:0.924865831842576 5:0.41765082737683445 6:-0.9888995215311005 7:-0.25058059278835654 8:-0.9978421605032862 9:-0.9976756730680677 
0.015625 1:1.0 2:-0.5777777777777777 3:0.9653179190751444 4:0.924865831842576 5:0.41765082737683445 6:-0.9888995215311005 7:0.49723648676509735 8:-0.9977702324312624 9:-0.9978654465877246 
0.015625 1:1.0 2:-0.5777777777777777 3:0.9653179190751444 4:0.924865831842576 5:0.41765082737683445 6:-0.9888995215311005 7:0.9530170508428706 8:-0.999962706626657 9:-0.9994872925498345 
0.015625 1:1.0 2:-0.5777777777777777 3:0.9653179190751444 4:0.924865831842576 5:0.41765082737683445 6:-0.9888995215311005 7:0.42767552343525495 8:-0.999552450215854 9:-0.999529553039506 
0.015625 1:1.0 2:-0.5777777777777777 3:0.9653179190751444 4:0.924865831842576 5:0.41765082737683445 6:-0.9888995215311005 7:0.9978494405133327 8:-0.968697971320277 9:-0.9966279318713065 
0.015625 1:1.0 2:-0.5777777777777777 3:-0.8921001926782274 4:-0.20095408467501485 5:0.422018743652411 6:-0.9888995215311005 7:0.23175258206226745 8:-0.9873126899597905 9:-0.9954438407927749 
0.015625 1:1.0 2:-0.5777777777777777 3:-0.8921001926782274 4:-0.20095408467501485 5:0.422018743652411 6:-0.9888995215311005 7:0.4298896993984225 8:-0.9978135224746101 9:-0.9952891514532226 
0.015625 1:1.0 2:-0.5777777777777777 3:-0.8921001926782274 4:-0.20095408467501485 5:0.422018743652411 6:-0.9888995215311005 7:-0.24886911646081056 8:-0.9981924768540692 9:-0.9965386266855856 
0.015625 1:1.0 2:-0.5777777777777777 3:-0.8921001926782274 4:-0.20095408467501485 5:0.422018743652411 6:-0.9888995215311005 7:0.9978494405133327 8:-0.9544455570488786 9:-0.9945468020969177 
0.015625 1:1.0 2:-0.5777777777777777 3:-0.8921001926782274 4:-0.20095408467501485 5:0.422018743652411 6:-0.9888995215311005 7:0.4964006290245342 8:-0.9982937089554361 9:-0.9966303239744954 
0.015625 1:1.0 2:-0.5777777777777777 3:-0.8921001926782274 4:-0.20095408467501485 5:0.422018743652411 6:-0.9888995215311005 7:-0.24898083261128134 8:-0.9979167525779777 9:-0.9958106299484143 
0.015625 1:1.0 2:-0.5777777777777777 3:-0.8921001926782274 4:-0.20095408467501485 5:0.422018743652411 6:-0.9888995215311005 7:-0.3631788617427757 8:-0.998051950713356 9:-0.9962691163929636 
0.015625 1:1.0 2:-0.5777777777777777 3:-0.8921001926782274 4:-0.20095408467501485 5:0.422018743652411 6:-0.9888995215311005 7:-0.3847062231437841 8:-0.9983589770207911 9:-0.9970537262389401 
0.015625 1:1.0 2:-0.5777777777777777 3:-0.8921001926782274 4:-0.20095408467501485 5:0.42217866654900815 6:-0.9888995215311005 7:0.7120690426305869 8:-0.9965174851768465 9:-0.9933300189414704 
0.015625 1:1.0 2:-0.5777777777777777 3:-0.8921001926782274 4:-0.20095408467501485 5:0.42217866654900815 6:-0.9888995215311005 7:-0.24902274619186615 8:-0.9980819207433659 9:-0.9965561687756379 
0.015625 1:1.0 2:-0.5777777777777777 3:-0.8921001926782274 4:-0.20095408467501485 5:0.42217866654900815 6:-0.9888995215311005 7:0.6920997472688992 8:-0.9982018008634057 9:-0.9963408794886321 
0.015625 1:1.0 2:-0.5777777777777777 3:-0.8921001926782274 4:-0.20095408467501485 5:0.42217866654900815 6:-0.9888995215311005 7:-0.22929483574906584 8:-0.9956443583025566 9:-0.9929608376826421 
0.015625 1:1.0 2:-0.5555555555555556 3:-0.9922928709055877 4:-0.4591532498509243 5:0.5010403093335349 6:-0.9888995215311005 7:-0.25062467885296125 8:-0.9988378315002835 9:-0.997713946719091 
0.015625 1:1.0 2:-0.5555555555555556 3:-0.9922928709055877 4:-0.4591532498509243 5:0.5010403093335349 6:-0.9888995215311005 7:0.428432601199745 8:-0.9988278414902801 9:-0.9974492206328468 
0.015625 1:1.0 2:-0.5555555555555556 3:-0.9922928709055877 4:-0.4591532498509243 5:0.5010403093335349 6:-0.9888995215311005 7:0.4965783777170667 8:-0.9982684009300944 9:-0.9957261089690713 
0.015625 1:1.0 2:-0.5555555555555556 3:-0.9922928709055877 4:-0.4591532498509243 5:0.5010403093335349 6:-0.9888995215311005 7:0.6923389377594837 8:-0.9990143216770088 9:-0.9979595359798235 
0.015625 1:1.0 2:-0.5555555555555556 3:-0.9922928709055877 4:-0.4591532498509243 5:0.5010403093335349 6:-0.9888995215311005 7:0.9528636603045 8:-0.999938730602649 9:-0.9995606503809623 
0.015625 1:1.0 2:-0.5555555555555556 3:-0.9922928709055877 4:-0.4591532498509243 5:0.5010403093335349 6:-0.9888995215311005 7:0.9969078310784261 8:-0.9919607086140003 9:-0.9904483319665122 
0.015625 1:1.0 2:-0.5777777777777777 3:-0.9499036608863198 4:-0.3452593917710197 5:0.5936121617994199 6:-0.9888995215311005 7:0.6919241908102414 8:-0.9995904122538667 9:-0.9996332108443606 
0.015625 1:1.0 2:-0.5777777777777777 3:-0.9499036608863198 4:-0.3452593917710197 5:0.5936121617994199 6:-0.9888995215311005 7:0.8652840267369628 8:-0.9748784575089956 9:-0.9891733409668004 
0.015625 1:1.0 2:-0.5777777777777777 3:-0.9499036608863198 4:-0.3452593917710197 5:0.5936121617994199 6:-0.9888995215311005 7:0.7575378165088813 8:-0.9900546147053675 9:-0.997024223632943 
0.015625 1:1.0 2:-0.5777777777777777 3:-0.9499036608863198 4:-0.3452593917710197 5:0.5936121617994199 6:-0.9888995215311005 7:0.6914853051496674 8:-0.9892107918604206 9:-0.9909586473134887 
0.015625 1:1.0 2:-0.5555555555555556 3:-0.8998073217726397 4:-0.21466905187835417 5:0.6148276031681248 6:-0.9888995215311005 7:-0.24970499395122847 8:-0.997926742587981 9:-0.9973447654602626 
0.015625 1:1.0 2:-0.5555555555555556 3:-0.8998073217726397 4:-0.21466905187835417 5:0.6148276031681248 6:-0.9888995215311005 7:-0.24886911646081056 8:-0.9984049310668064 9:-0.9980528280041926 
0.015625 1:1.0 2:-0.5555555555555556 3:-0.8998073217726397 4:-0.21466905187835417 5:0.6148276031681248 6:-0.9888995215311005 7:-0.25062467885296125 8:-0.9972247778850812 9:-0.9965123135505071 
0.015625 1:1.0 2:-0.5555555555555556 3:-0.8998073217726397 4:-0.21466905187835417 5:0.6148276031681248 6:-0.9888995215311005 7:0.7125518168572185 8:-0.9974159200764781 9:-0.9965051372409403 
0.015625 1:1.0 2:-0.5555555555555556 3:-0.8998073217726397 4:-0.21466905187835417 5:0.6148276031681248 6:-0.9888995215311005 7:0.8016653755583165 8:-0.9930775917323711 9:-0.9902210821635616 
0.015625 1:1.0 2:-0.5555555555555556 3:-0.9190751445086706 4:-0.22599880739415623 5:0.6149979613250005 6:-0.9888995215311005 7:0.3381406542498606 8:-0.996603399262875 9:-0.9861744409355835 
0.015625 1:1.0 2:-0.5555555555555556 3:-0.9190751445086706 4:-0.22599880739415623 5:0.6149979613250005 6:-0.9888995215311005 7:0.23150241504131208 8:-0.9275391301066123 9:-0.9869877560198274 
0.015625 1:1.0 2:-0.5555555555555556 3:-0.9190751445086706 4:-0.22599880739415623 5:0.6149979613250005 6:-0.9888995215311005 7:0.27244585445386904 8:-0.9930402956950254 9:-0.9967507265016726 
0.015625 1:1.0 2:-0.5555555555555556 3:-0.9344894026974951 4:-0.9898628503279666 5:0.615048313988674 6:-0.9888995215311005 7:-0.24904666546036747 8:-0.9987998694622708 9:-0.9964086557456524 
0.015625 1:1.0 2:-0.5555555555555556 3:-0.9344894026974951 4:-0.9898628503279666 5:0.615048313988674 6:-0.9888995215311005 7:0.9978494405133327 8:-0.9491708317671274 9:-0.9878297763423387 
0.015625 1:1.0 2:-0.5555555555555556 3:-0.9344894026974951 4:-0.9898628503279666 5:0.615048313988674 6:-0.9888995215311005 7:-0.05670063585721585 8:-0.9991954738584022 9:-0.9975736099986724 
0.015625 1:1.0 2:-0.5555555555555556 3:-0.9344894026974951 4:-0.9898628503279666 5:0.615048313988674 6:-0.9888995215311005 7:-0.1884740804590802 8:-0.9982217808834123 9:-0.9931027691385199 
0.015625 1:1.0 2:-0.5555555555555556 3:-0.8612716763005781 4:-0.1520572450805009 5:0.6151599611423328 6:-1.0 7:0.9997807568626886 8:-0.9851348677790674 9:-0.9466090541903069 
0.015625 1:1.0 2:-0.5555555555555556 3:-0.953757225433526 4:-0.3559928443649374 5:0.6152413156472218 6:-0.9888995215311005 7:0.25369884029588174 8:-0.9912887139411105 9:-0.9874853134831295 
0.015625 1:1.0 2:-0.5555555555555556 3:-0.953757225433526 4:-0.3559928443649374 5:0.6152413156472218 6:-0.9888995215311005 7:0.23171529016713133 8:-0.990793209444946 9:-0.999449816266541 
0.015625 1:1.0 2:-0.5555555555555556 3:-0.953757225433526 4:-0.3559928443649374 5:0.6152413156472218 6:-0.9888995215311005 7:0.6919461350932701 8:-0.9989450576076524 9:-0.9986994932329394 
0.015625 1:1.0 2:-0.5555555555555556 3:-0.953757225433526 4:-0.3559928443649374 5:0.6152413156472218 6:-0.9888995215311005 7:0.953237590887309 8:-0.9972987039591058 9:-0.9951169200236181 
0.015625 1:1.0 2:-0.5555555555555556 3:-0.953757225433526 4:-0.3559928443649374 5:0.6152413156472218 6:-0.9888995215311005 7:0.23150241504131208 8:-0.9756643382959231 9:-0.9994179215573549 
0.015625 1:1.0 2:-0.5555555555555556 3:-0.953757225433526 4:-0.3559928443649374 5:0.6152413156472218 6:-0.9888995215311005 7:0.953237590887309 8:-0.9993912780544673 9:-0.9990311982084742 
0.015625 1:1.0 2:-0.5555555555555556 3:0.3256262042389211 4:-0.7948717948717949 5:0.615359598815912 6:-0.9888995215311005 7:0.2730583018377737 8:-0.9779154205500039 9:-0.9966574344773035 
0.015625 1:1.0 2:-0.5555555555555556 3:0.3256262042389211 4:-0.7948717948717949 5:0.615359598815912 6:-0.9888995215311005 7:0.3381406542498606 8:-0.9993812880444639 9:-0.9990670797563085 
0.015625 1:1.0 2:-0.5555555555555556 3:0.3256262042389211 4:-0.7948717948717949 5:0.615359598815912 6:-0.9888995215311005 7:0.4964006290245342 8:-0.9996749943385614 9:-0.9995343372458839 
0.015625 1:1.0 2:-0.5555555555555556 3:0.3256262042389211 4:-0.7948717948717949 5:0.615359598815912 6:-0.9888995215311005 7:0.6914436110119129 8:-0.9972887139491026 9:-0.9960307034417979 
0.015625 1:1.0 2:-0.5555555555555556 3:0.3256262042389211 4:-0.7948717948717949 5:0.615359598815912 6:-0.9888995215311005 7:0.7121129311966443 8:-0.9997695664332595 9:-0.9996475634634943 
0.015625 1:1.0 2:-0.5555555555555556 3:0.3256262042389211 4:-0.7948717948717949 5:0.615359598815912 6:-0.9888995215311005 7:0.7610491212363035 8:-0.9997003023639032 9:-0.9995526767036659 
0.015625 1:1.0 2:-0.5555555555555556 3:0.3256262042389211 4:-0.7948717948717949 5:0.615359598815912 6:-0.9888995215311005 7:0.8682903935118944 8:-0.9993340019971149 9:-0.9999011264015233 
0.015625 1:1.0 2:-0.5555555555555556 3:0.3256262042389211 4:-0.7948717948717949 5:0.615359598815912 6:-0.9888995215311005 7:0.9534759058010007 8:-0.9924535491074973 9:-0.9888145254884575 
0.015625 1:1.0 2:-0.5555555555555556 3:0.3256262042389211 4:-0.7948717948717949 5:0.615359598815912 6:-0.9888995215311005 7:0.9971472234564145 8:-0.9998335024972808 9:-0.9999760789681105 
0.015625 1:1.0 2:-0.5555555555555556 3:-0.9190751445086706 4:-0.22599880739415623 5:0.6191756113986071 6:-0.9888995215311005 7:0.0760425468004271 8:-0.9836963063385898 9:-0.9843851477502469 
0.015625 1:1.0 2:-0.5555555555555556 3:-0.9190751445086706 4:-0.22599880739415623 5:0.6191756113986071 6:-0.9888995215311005 7:0.8016653755583165 8:-0.9975624402231934 9:-0.9956232485319464 
0.015625 1:1.0 2:-0.5555555555555556 3:-0.9190751445086706 4:-0.22599880739415623 5:0.6191756113986071 6:-0.9888995215311005 7:0.6899711496206873 8:-0.9988012014636046 9:-0.9985655354543581 
0.015625 1:1.0 2:-0.5555555555555556 3:-0.9190751445086706 4:-0.22599880739415623 5:0.6191756113986071 6:-0.9888995215311005 7:0.45121515584014027 8:-0.9984682011301608 9:-0.9983135672517884 
0.015625 1:1.0 2:-0.5555555555555556 3:-0.9190751445086706 4:-0.22599880739415623 5:0.6191756113986071 6:-0.9888995215311005 7:0.8016653755583165 8:-0.9981019007633725 9:-0.9970465499293731 
0.015625 1:1.0 2:-0.5555555555555556 3:-0.9190751445086706 4:-0.22599880739415623 5:0.6191756113986071 6:-0.9888995215311005 7:-0.2496632998134739 8:-0.9989277415903134 9:-0.9988964430621632 
0.015625 1:1.0 2:-0.5555555555555556 3:-0.8574181117533719 4:-0.9779367918902803 5:0.6192319921980727 6:-0.9888995215311005 7:-0.24898083261128134 8:-0.9955011681591757 9:-0.9935373345511797 
0.015625 1:1.0 2:-0.5555555555555556 3:-0.8574181117533719 4:-0.9779367918902803 5:0.6192319921980727 6:-0.9888995215311005 7:-0.24898083261128134 8:-0.997404598065141 9:-0.9948737228660746 
0.015625 1:1.0 2:-0.5555555555555556 3:-0.8574181117533719 4:-0.9779367918902803 5:0.6192319921980727 6:-0.9888995215311005 7:-0.24886911646081056 8:-0.9974738621344973 9:-0.9951615726164785 
0.015625 1:1.0 2:-0.5555555555555556 3:0.5452793834296725 4:0.8205128205128205 5:0.6192507351412913 6:-0.9888995215311005 7:0.42767552343525495 8:-0.9958241784826163 9:-0.9905017556043988 
0.015625 1:1.0 2:-0.5555555555555556 3:0.5452793834296725 4:0.8205128205128205 5:0.6192507351412913 6:-0.9888995215311005 7:0.45121515584014027 8:-0.9992008018637374 9:-0.9963648005205217 
0.015625 1:1.0 2:-0.5555555555555556 3:0.5452793834296725 4:0.8205128205128205 5:0.6192507351412913 6:-0.9888995215311005 7:0.45137096024964407 8:-0.9995104921738401 9:-0.9983008093681139 
0.015625 1:1.0 2:-0.5555555555555556 3:0.5452793834296725 4:0.8205128205128205 5:0.6192507351412913 6:-0.9888995215311005 7:0.45121515584014027 8:-0.9992414279044175 9:-0.9971852919143324 
0.015625 1:1.0 2:-0.5555555555555556 3:0.5452793834296725 4:0.8205128205128205 5:0.6192507351412913 6:-0.9888995215311005 7:0.9993833656468936 8:-0.9984182510801441 9:-0.9939408026223829 
0.015625 1:1.0 2:-0.5555555555555556 3:0.5452793834296725 4:0.8205128205128205 5:0.6192507351412913 6:-0.9888995215311005 7:0.9993833502858955 8:-0.9990955737583691 9:-0.9964277925711641 
0.015625 1:1.0 2:-0.5555555555555556 3:0.5452793834296725 4:0.8205128205128205 5:0.6192507351412913 6:-0.9888995215311005 7:0.2730583018377737 8:-0.9832167858584306 9:-0.9969867473496493 
0.015625 1:1.0 2:-0.5555555555555556 3:0.5452793834296725 4:0.8205128205128205 5:0.6192507351412913 6:-0.9888995215311005 7:0.7125518168572185 8:-0.9995191501825097 9:-0.9983311093418407 
0.015625 1:1.0 2:-0.5555555555555556 3:-0.8921001926782274 4:-0.20095408467501485 5:0.6192759621297312 6:-0.9888995215311005 7:0.9993657904706159 8:-0.9990449577076856 9:-0.9990288061052852 
0.015625 1:1.0 2:-0.5555555555555556 3:-0.8921001926782274 4:-0.20095408467501485 5:0.6192759621297312 6:-0.9888995215311005 7:0.45121515584014027 8:-0.9992487539117533 9:-0.9990471455630672 
0.015625 1:1.0 2:-0.5555555555555556 3:-0.8921001926782274 4:-0.20095408467501485 5:0.6192759621297312 6:-0.9888995215311005 7:0.45121515584014027 8:-0.9988291734916139 9:-0.9985567644093319 
0.015625 1:1.0 2:-0.5555555555555556 3:-0.8921001926782274 4:-0.20095408467501485 5:0.6192759621297312 6:-0.9888995215311005 7:0.45121515584014027 8:-0.998751917414255 9:-0.9984770276363668 
0.015625 1:1.0 2:-0.5555555555555556 3:-0.8921001926782274 4:-0.20095408467501485 5:0.6192759621297312 6:-0.9888995215311005 7:0.6900150381867447 8:-0.9994405621038169 9:-0.9981923673568814 
0.015625 1:1.0 2:-0.5555555555555556 3:-0.8921001926782274 4:-0.20095408467501485 5:0.6192759621297312 6:-0.9888995215311005 7:0.6899711496206873 8:-0.9985174851795104 9:-0.995655940608862 
0.015625 1:1.0 2:-0.5555555555555556 3:-0.8921001926782274 4:-0.20095408467501485 5:0.6192759621297312 6:-0.9888995215311005 7:0.42964612005123204 8:-0.9983376649994508 9:-0.997293733925565 
0.015625 1:1.0 2:-0.5555555555555556 3:-0.8921001926782274 4:-0.20095408467501485 5:0.6192759621297312 6:-0.9888995215311005 7:-0.24898083261128134 8:-0.9989130895756418 9:-0.9986341090791081 
0.015625 1:1.0 2:-0.5555555555555556 3:-0.8921001926782274 4:-0.20095408467501485 5:0.6192759621297312 6:-0.9888995215311005 7:0.9993657904706159 8:-0.9981098927713752 9:-0.9981221989966722 
0.015625 1:1.0 2:-0.5555555555555556 3:-0.9344894026974951 4:-0.9898628503279666 5:0.6193539226421998 6:-0.9888995215311005 7:-0.24904666546036747 8:-0.9992474219104195 9:-0.9985591565125209 
0.015625 1:1.0 2:-0.5555555555555556 3:-0.9344894026974951 4:-0.9898628503279666 5:0.6193539226421998 6:-0.9888995215311005 7:0.31729358537259666 8:-0.9951381977957219 9:-0.9982545620397942 
0.015625 1:1.0 2:-0.5555555555555556 3:-0.9344894026974951 4:-0.9898628503279666 5:0.6193539226421998 6:-0.9888995215311005 7:0.865461555986665 8:-0.9939393965953238 9:-0.9984044671729686 
0.015625 1:1.0 2:-0.5555555555555556 3:-0.9344894026974951 4:-0.9898628503279666 5:0.6193539226421998 6:-0.9888995215311005 7:-0.24904666546036747 8:-0.9991342017970486 9:-0.9984459302949105 
0.015625 1:1.0 2:-0.5555555555555556 3:-0.9344894026974951 4:-0.9898628503279666 5:0.6193539226421998 6:-0.9888995215311005 7:0.6900150381867447 8:-0.999624378287878 9:-0.999191469122134 
0.015625 1:1.0 2:-0.5555555555555556 3:-0.9344894026974951 4:-0.9898628503279666 5:0.6193539226421998 6:-0.9888995215311005 7:0.7575378165088813 8:-0.9951381977957219 9:-0.9988366404824394 
0.015625 1:1.0 2:-0.5777777777777777 3:-0.8998073217726397 4:-0.21466905187835417 5:0.6193766168004753 6:-0.9888995215311005 7:0.7575378165088813 8:-0.9889004355496509 9:-0.9966781660382744 
0.015625 1:1.0 2:-0.5777777777777777 3:-0.8998073217726397 4:-0.21466905187835417 5:0.6193766168004753 6:-0.9888995215311005 7:0.25299661885010694 8:-0.9470529496464242 9:-0.977814040290194 
0.015625 1:1.0 2:-0.5777777777777777 3:-0.8998073217726397 4:-0.21466905187835417 5:0.6193766168004753 6:-0.9888995215311005 7:-0.24886911646081056 8:-0.9945015011581771 9:-0.9951950620611238 
0.015625 1:1.0 2:-0.5555555555555556 3:-0.1637764932562621 4:0.39057841383422787 5:0.6194357837131219 6:-0.9888995215311005 7:0.42767552343525495 8:-0.9939160865719828 9:-0.9882005523366263 
0.015625 1:1.0 2:-0.5555555555555556 3:-0.1637764932562621 4:0.39057841383422787 5:0.6194357837131219 6:-0.9888995215311005 7:-0.24970499395122847 8:-0.9960772587360337 9:-0.9934257030690286 
0.015625 1:1.0 2:-0.5555555555555556 3:-0.1637764932562621 4:0.39057841383422787 5:0.6194357837131219 6:-0.9888995215311005 7:0.9993657904706159 8:-0.9958075284659441 9:-0.9924218170973981 
0.015625 1:1.0 2:-0.5777777777777777 3:-0.8998073217726397 4:-0.21466905187835417 5:0.6194391270489392 6:-0.9888995215311005 7:0.7575378165088813 8:-0.9760239786560426 9:-0.9928244878008717 
0.015625 1:1.0 2:-0.5777777777777777 3:-0.8998073217726397 4:-0.21466905187835417 5:0.6194391270489392 6:-0.9888995215311005 7:0.6919241908102414 8:-0.9975358001965179 9:-0.9977881019179484 
0.015625 1:1.0 2:-0.5777777777777777 3:-0.8998073217726397 4:-0.21466905187835417 5:0.6194391270489392 6:-0.9888995215311005 7:0.99789310963656 8:-0.9880119906600227 9:-0.9969867473496493 
0.015625 1:1.0 2:-0.5777777777777777 3:-0.8998073217726397 4:-0.21466905187835417 5:0.6194391270489392 6:-0.9888995215311005 7:0.997827496230304 8:-0.9520479546480826 9:-0.9965561687756379 
0.015625 1:1.0 2:-0.5777777777777777 3:-0.8998073217726397 4:-0.21466905187835417 5:0.6194391270489392 6:-0.9888995215311005 7:0.25299661885010694 8:-0.9666999693196137 9:-0.9968113264491262 
0.015625 1:1.0 2:-0.5555555555555556 3:-0.49132947976878616 4:-0.04054859868813354 5:0.6194808174334498 6:-0.9888995215311005 7:0.9529733817196435 8:-0.9997336023972475 9:-0.999426692602381 
0.015625 1:1.0 2:-0.5555555555555556 3:-0.49132947976878616 4:-0.04054859868813354 5:0.6194808174334498 6:-0.9888995215311005 7:0.9525584153275708 8:-0.9991675018303929 9:-0.9992034296380787 
0.015625 1:1.0 2:-0.5555555555555556 3:-0.49132947976878616 4:-0.04054859868813354 5:0.6194808174334498 6:-0.9888995215311005 7:-0.1884740804590802 8:-0.9998002024639363 9:-0.9996818502758693 
0.015625 1:1.0 2:-0.5555555555555556 3:-0.953757225433526 4:-0.3559928443649374 5:0.6195533070327626 6:-0.9888995215311005 7:-0.24898083261128134 8:-0.9985960732582032 9:-0.9974795206065736 
0.015625 1:1.0 2:-0.5555555555555556 3:-0.953757225433526 4:-0.3559928443649374 5:0.6195533070327626 6:-0.9888995215311005 7:0.2730583018377737 8:-0.9818981045379929 9:-0.995016451689682 
0.015625 1:1.0 2:-0.5555555555555556 3:-0.953757225433526 4:-0.3559928443649374 5:0.6195533070327626 6:-0.9888995215311005 7:-0.1884541111615241 8:-0.9967665694262625 9:-0.9938610658494179 
0.015625 1:1.0 2:-0.5555555555555556 3:-0.953757225433526 4:-0.3559928443649374 5:0.6195533070327626 6:-0.9888995215311005 7:-0.05301838516500024 8:-0.997986016647334 9:-0.9956607248152399 
0.015625 1:1.0 2:-0.5555555555555556 3:-0.9190751445086706 4:-0.22599880739415623 5:0.6196228078924813 6:-0.9888995215311005 7:-0.18830050118032315 8:-0.9910269756790236 9:-0.9975831784114282 
0.015625 1:1.0 2:-0.5555555555555556 3:-0.9190751445086706 4:-0.22599880739415623 5:0.6196228078924813 6:-0.9888995215311005 7:0.9755518545278719 8:-0.9977615744225928 9:-0.9951767226033419 
0.015625 1:1.0 2:-0.5555555555555556 3:-0.9190751445086706 4:-0.22599880739415623 5:0.6196228078924813 6:-0.9888995215311005 7:0.36030284400903456 8:-0.9991208817837108 9:-0.9986325143436487 
0.015625 1:1.0 2:-0.5555555555555556 3:-0.9190751445086706 4:-0.22599880739415623 5:0.6196228078924813 6:-0.9888995215311005 7:0.953237590887309 8:-0.9995804222438633 9:-0.9969867473496493 
0.015625 1:1.0 2:-0.5555555555555556 3:-0.9190751445086706 4:-0.22599880739415623 5:0.6196228078924813 6:-0.9888995215311005 7:-0.24886911646081056 8:-0.9989770256396631 9:-0.9980041885726838 
0.015625 1:1.0 2:-0.5555555555555556 3:-0.9190751445086706 4:-0.22599880739415623 5:0.6196228078924813 6:-0.9888995215311005 7:-0.2508002331171908 8:-0.999463872127158 9:-0.9992305401408869 
0.015625 1:1.0 2:-0.5555555555555556 3:-0.9190751445086706 4:-0.22599880739415623 5:0.6196228078924813 6:-0.9888995215311005 7:0.9756240512190362 8:-0.9995920772555339 9:-0.9987800273736341 
0.015625 1:1.0 2:-0.5555555555555556 3:-0.9190751445086706 4:-0.22599880739415623 5:0.6196228078924813 6:-0.9888995215311005 7:0.953237590887309 8:-0.9993163529794423 9:-0.9973814443758265 
0.015625 1:1.0 2:-0.5555555555555556 3:-0.953757225433526 4:-0.3548002385211687 5:0.6196229092056877 6:-0.9888995215311005 7:0.428432601199745 8:-0.9989956736583359 9:-0.9984379566176139 
0.015625 1:1.0 2:-0.5555555555555556 3:-0.953757225433526 4:-0.3548002385211687 5:0.6196229092056877 6:-0.9888995215311005 7:-0.24970499395122847 8:-0.9985641052261927 9:-0.9974221101300387 
0.015625 1:1.0 2:-0.5555555555555556 3:-0.953757225433526 4:-0.3548002385211687 5:0.6196229092056877 6:-0.9888995215311005 7:-0.24886911646081056 8:-0.9987765594389298 9:-0.9976573336102857 
0.015625 1:1.0 2:-0.5555555555555556 3:-0.953757225433526 4:-0.3548002385211687 5:0.6196229092056877 6:-0.9888995215311005 7:0.36012663141631407 8:-0.9988844515469656 9:-0.9981309700416984 
0.015625 1:1.0 2:-0.5555555555555556 3:-0.9383429672447013 4:-0.24985092426952893 5:0.6197568452647955 6:-0.9888995215311005 7:0.6919461350932701 8:-0.9981778248393977 9:-0.9973391838861551 
0.015625 1:1.0 2:-0.5555555555555556 3:-0.9383429672447013 4:-0.24985092426952893 5:0.6197568452647955 6:-0.9888995215311005 7:0.42767552343525495 8:-0.99797402863533 9:-0.9982545620397942 
0.015625 1:1.0 2:-0.5555555555555556 3:-0.9383429672447013 4:-0.24985092426952893 5:0.6197568452647955 6:-0.9888995215311005 7:0.9528636603045 8:-0.9985614412235251 9:-0.9962547637738298 
0.015625 1:1.0 2:-0.5555555555555556 3:-0.9383429672447013 4:-0.24985092426952893 5:0.6197568452647955 6:-0.9888995215311005 7:-0.1884740804590802 8:-0.9990676017303598 9:-0.9987935826250383 
0.015625 1:1.0 2:-0.5555555555555556 3:-0.9383429672447013 4:-0.24985092426952893 5:0.6197568452647955 6:-0.9888995215311005 7:-0.18830050118032315 8:-0.9979220805833128 9:-0.998184393679585 
0.015625 1:1.0 2:-0.5555555555555556 3:-0.9383429672447013 4:-0.24985092426952893 5:0.6197568452647955 6:-0.9888995215311005 7:0.428432601199745 8:-0.9992807219437638 9:-0.9986404880209453 
0.015625 1:1.0 2:-0.5555555555555556 3:-0.9383429672447013 4:-0.24985092426952893 5:0.6197568452647955 6:-0.9888995215311005 7:0.49723648676509735 8:-0.9992940419571016 9:-0.9989339193454568 
0.015625 1:1.0 2:-0.5555555555555556 3:-0.953757225433526 4:-0.3548002385211687 5:0.6234882106633872 6:-0.9888995215311005 7:-0.24898083261128134 8:-0.9994665361298256 9:-0.9992137954185643 
0.015625 1:1.0 2:-0.5555555555555556 3:-0.953757225433526 4:-0.3548002385211687 5:0.6234882106633872 6:-0.9888995215311005 7:-0.05306227373105765 8:-0.9968431595029545 9:-0.9956152748546498 
0.015625 1:1.0 2:-0.5555555555555556 3:-0.953757225433526 4:-0.3548002385211687 5:0.6234882106633872 6:-0.9888995215311005 7:0.11914087903722104 8:-0.9991608418237241 9:-0.9988310589083318 
0.015625 1:1.0 2:-0.5555555555555556 3:-0.953757225433526 4:-0.3548002385211687 5:0.6234882106633872 6:-0.9888995215311005 7:0.27257357018109607 8:-0.9999100925739728 9:-0.999881192208282 
0.015625 1:1.0 2:-0.5555555555555556 3:-0.953757225433526 4:-0.3548002385211687 5:0.6234882106633872 6:-0.9888995215311005 7:0.36012663141631407 8:-0.9997336023972475 9:-0.9996021135029042 
0.015625 1:1.0 2:-0.5555555555555556 3:-0.953757225433526 4:-0.3548002385211687 5:0.6234882106633872 6:-0.9888995215311005 7:0.4294705657870026 8:-0.9977595764205922 9:-0.9969707999950563 
0.015625 1:1.0 2:-0.5555555555555556 3:-0.953757225433526 4:-0.3548002385211687 5:0.6234882106633872 6:-0.9888995215311005 7:0.8874718913072801 8:-0.9996396963032164 9:-0.9995702187937182 
0.015625 1:1.0 2:-0.5555555555555556 3:-0.953757225433526 4:-0.3548002385211687 5:0.6234882106633872 6:-0.9888995215311005 7:0.997627803254743 8:-0.8695970720873754 9:-0.9807643008899023 
0.015625 1:1.0 2:-0.5555555555555556 3:0.9576107899807322 4:0.8300536672629697 5:0.6235757959304815 6:-0.9888995215311005 7:0.4278910162945968 8:-0.9996203822838766 9:-0.9993509426680642 
0.015625 1:1.0 2:-0.5555555555555556 3:0.9576107899807322 4:0.8300536672629697 5:0.6235757959304815 6:-0.9888995215311005 7:0.23171529016713133 8:-0.9832167858584306 9:-0.9949773806709291 
0.015625 1:1.0 2:-0.5555555555555556 3:0.9576107899807322 4:0.8300536672629697 5:0.6235757959304815 6:-0.9888995215311005 7:-0.2496632998134739 8:-0.9970695997296964 9:-0.9952293488734988 
0.015625 1:1.0 2:-0.5555555555555556 3:0.9576107899807322 4:0.8300536672629697 5:0.6235757959304815 6:-0.9888995215311005 7:0.997827496230304 8:-0.917415919969918 9:-0.9940683814591271 
0.015625 1:1.0 2:-0.5555555555555556 3:-0.8574181117533719 4:-0.9779367918902803 5:0.6236069497415069 6:-0.9888995215311005 7:0.27325362351215543 8:-0.9994006020638037 9:-0.9982282489047157 
0.015625 1:1.0 2:-0.5555555555555556 3:-0.8574181117533719 4:-0.9779367918902803 5:0.6236069497415069 6:-0.9888995215311005 7:0.27362228746703776 8:-0.9994192500824766 9:-0.9995909503546891 
0.015625 1:1.0 2:-0.5555555555555556 3:-0.8574181117533719 4:-0.9779367918902803 5:0.6236069497415069 6:-0.9888995215311005 7:-0.1884321668784954 8:-0.9992540819170883 9:-0.9919410043564186 
0.015625 1:1.0 2:-0.5555555555555556 3:-0.8574181117533719 4:-0.9779367918902803 5:0.6236069497415069 6:-0.9888995215311005 7:-0.1884740804590802 8:-0.9990742617370286 9:-0.9929991113336653 
0.015625 1:1.0 2:-0.5555555555555556 3:-0.8574181117533719 4:-0.9779367918902803 5:0.6236069497415069 6:-0.9888995215311005 7:-0.1884740804590802 8:-0.999333335996448 9:-0.9995694214259885 
0.015625 1:1.0 2:-0.5555555555555556 3:-0.8574181117533719 4:-0.9779367918902803 5:0.6236069497415069 6:-0.9888995215311005 7:-0.18830050118032315 8:-0.99360639626188 9:-0.9944128443183363 
0.015625 1:1.0 2:-0.5555555555555556 3:-0.8574181117533719 4:-0.9779367918902803 5:0.6236069497415069 6:-0.9888995215311005 7:0.9993833656468936 8:-0.9989403956029842 9:-0.998871724662544 
0.015625 1:1.0 2:-0.5555555555555556 3:-0.8574181117533719 4:-0.9779367918902803 5:0.6236069497415069 6:-0.9888995215311005 7:0.953237590887309 8:-0.9990516177143545 9:-0.9987289958389365 
0.015625 1:1.0 2:-0.5555555555555556 3:-0.8574181117533719 4:-0.9779367918902803 5:0.6236069497415069 6:-0.9888995215311005 7:0.953237590887309 8:-0.9990316376943479 9:-0.998435564514425 
0.015625 1:1.0 2:-0.5555555555555556 3:-0.953757225433526 4:-0.3559928443649374 5:0.6238057262528303 6:-0.9888995215311005 7:-0.24898083261128134 8:-0.9996736623372277 9:-0.9992361217149944 
0.015625 1:1.0 2:-0.5555555555555556 3:-0.953757225433526 4:-0.3559928443649374 5:0.6238057262528303 6:-0.9888995215311005 7:-0.1884740804590802 8:-0.9997855504492648 9:-0.9994099478800583 
0.015625 1:1.0 2:-0.5555555555555556 3:-0.953757225433526 4:-0.3559928443649374 5:0.6238057262528303 6:-0.9888995215311005 7:0.31729358537259666 8:-0.997855480516624 9:-0.9997536133715379 
0.015625 1:1.0 2:-0.5555555555555556 3:-0.953757225433526 4:-0.3559928443649374 5:0.6238057262528303 6:-0.9888995215311005 7:0.5599971362271763 8:-0.9997482544119191 9:-0.9993110742815816 
0.015625 1:1.0 2:-0.5555555555555556 3:-0.953757225433526 4:-0.3559928443649374 5:0.6238057262528303 6:-0.9888995215311005 7:0.6914436110119129 8:-0.9997296063932463 9:-0.9993549295067125 
0.015625 1:1.0 2:-0.5555555555555556 3:-0.953757225433526 4:-0.3559928443649374 5:0.6238057262528303 6:-0.9888995215311005 7:0.7125518168572185 8:-0.9995244781878448 9:-0.9991125297168986 
0.015625 1:1.0 2:-0.5555555555555556 3:-0.953757225433526 4:-0.3559928443649374 5:0.6238057262528303 6:-0.9888995215311005 7:0.7358347011506678 8:-0.9988351674976159 9:-0.9988677378238957 
0.015625 1:1.0 2:-0.5555555555555556 3:-0.953757225433526 4:-0.3559928443649374 5:0.6238057262528303 6:-0.9888995215311005 7:0.865461555986665 8:-0.9906280412795578 9:-0.9978550808072392 
0.015625 1:1.0 2:-0.5555555555555556 3:-0.953757225433526 4:-0.3559928443649374 5:0.6238057262528303 6:-0.9888995215311005 7:0.9102259183797381 8:-0.9990209816836776 9:-0.9996411845216571 
0.015625 1:1.0 2:-0.5555555555555556 3:-0.953757225433526 4:-0.3559928443649374 5:0.6238057262528303 6:-0.9888995215311005 7:0.9756240512190362 8:-0.9969696996296633 9:-0.9935277661384239 
0.015625 1:1.0 2:-0.5555555555555556 3:-0.8998073217726397 4:-0.21466905187835417 5:0.6238281671280892 6:-1.0 7:0.9993833656468936 8:-0.9974452241058211 9:-0.9944335758793073 
0.015625 1:1.0 2:-0.5555555555555556 3:-0.8998073217726397 4:-0.21466905187835417 5:0.6238281671280892 6:-1.0 7:0.6914458054402157 8:-0.9980845847460335 9:-0.9967443475598354 
0.015625 1:1.0 2:-0.5777777777777777 3:-0.19460500963391136 4:0.3369111508646392 5:0.6239016698594679 6:-0.9888995215311005 7:-0.1884541111615241 8:-0.9992607419237572 9:-0.9966247424003878 
0.015625 1:1.0 2:-0.5777777777777777 3:-0.19460500963391136 4:0.3369111508646392 5:0.6239016698594679 6:-0.9888995215311005 7:0.36012663141631407 8:-0.9966433593028883 9:-0.9919633306528488 
0.015625 1:1.0 2:-0.5777777777777777 3:-0.19460500963391136 4:0.3369111508646392 5:0.6239016698594679 6:-0.9888995215311005 7:0.42856865575452296 8:-0.9987412614035848 9:-0.9975895573532654 
0.015625 1:1.0 2:-0.5555555555555556 3:-0.9499036608863198 4:-0.3452593917710197 5:0.6239469568628122 6:-0.9888995215311005 7:0.4950620277597835 8:-0.9977689004299286 9:-0.995994024526234 
0.015625 1:1.0 2:-0.5555555555555556 3:-0.9499036608863198 4:-0.3452593917710197 5:0.6239469568628122 6:-0.9888995215311005 7:0.7616431529778904 8:-0.956709959316297 9:-0.9937295001740255 
0.015625 1:1.0 2:-0.5555555555555556 3:-0.9499036608863198 4:-0.3452593917710197 5:0.6239469568628122 6:-0.9888995215311005 7:-0.24898083261128134 8:-0.9950516177090265 9:-0.9890401805559487 
0.015625 1:1.0 2:-0.5555555555555556 3:-0.12524084778420042 4:-0.86463923673226 5:0.6240371762732777 6:-0.9888995215311005 7:-0.3631788617427757 8:-0.9971781578383991 9:-0.9964533083385129 
0.015625 1:1.0 2:-0.5555555555555556 3:-0.12524084778420042 4:-0.86463923673226 5:0.6240371762732777 6:-0.9888995215311005 7:0.428432601199745 8:-0.9967605754202605 9:-0.996199745400484 
0.015625 1:1.0 2:-0.5555555555555556 3:-0.12524084778420042 4:-0.86463923673226 5:0.6240371762732777 6:-0.9888995215311005 7:0.42856865575452296 8:-0.9968904455503036 9:-0.9961662559558386 
0.015625 1:1.0 2:-0.5555555555555556 3:-0.953757225433526 4:-0.3548002385211687 5:0.6241426433213346 6:-0.9888995215311005 7:-0.18830050118032315 8:-0.9571328697397707 9:-0.9827561254785702 
0.015625 1:1.0 2:-0.5555555555555556 3:-0.6107899807321773 4:-0.11568276684555756 5:0.6241918815397358 6:-0.9888995215311005 7:-0.24970499395122847 8:-0.9987139553762424 9:-0.9985456012611168 
0.015625 1:1.0 2:-0.5555555555555556 3:-0.6107899807321773 4:-0.11568276684555756 5:0.6241918815397358 6:-0.9888995215311005 7:0.9969078310784261 8:-0.9606393632509349 9:-0.9964867977831582 
0.015625 1:1.0 2:-0.5555555555555556 3:-0.6107899807321773 4:-0.11568276684555756 5:0.6241918815397358 6:-0.9888995215311005 7:-0.25027771998842274 8:-0.9986486873108874 9:-0.9986221485631633 
0.015625 1:1.0 2:-0.5555555555555556 3:-0.6107899807321773 4:-0.11568276684555756 5:0.6241918815397358 6:-0.9888995215311005 7:-0.25027771998842274 8:-0.9981012347627056 9:-0.9986939116588318 
0.015625 1:1.0 2:-0.5555555555555556 3:-0.6107899807321773 4:-0.11568276684555756 5:0.6241918815397358 6:-0.9888995215311005 7:0.9534759058010007 8:-0.9967905454502705 9:-0.9962539664061002 
0.015625 1:1.0 2:-0.5555555555555556 3:-0.953757225433526 4:-0.9928443649373881 5:0.6278832282217257 6:-0.9888995215311005 7:0.4946477196962018 8:-0.9945587772155295 9:-0.9886000335691815 
0.015625 1:1.0 2:-0.5555555555555556 3:-0.953757225433526 4:-0.9928443649373881 5:0.6278832282217257 6:-0.9888995215311005 7:0.7110396363137108 8:-0.9968364994962857 9:-0.9911755313359537 
0.015625 1:1.0 2:-0.5555555555555556 3:-0.953757225433526 4:-0.9928443649373881 5:0.6278832282217257 6:-0.9888995215311005 7:0.7573622841889349 8:-0.994152516808728 9:-0.991179518174602 
0.015625 1:1.0 2:-0.5555555555555556 3:-0.8921001926782274 4:-0.208706022659511 5:0.6278846972632213 6:-0.9888995215311005 7:0.9530170508428706 8:-0.9994006020638037 9:-0.995336196149272 
0.015625 1:1.0 2:-0.5555555555555556 3:-0.8921001926782274 4:-0.208706022659511 5:0.6278846972632213 6:-0.9888995215311005 7:0.6916828036969258 8:-0.9970163196763454 9:-0.9951783173388011 
0.015625 1:1.0 2:-0.5555555555555556 3:-0.09055876685934494 4:-0.8592725104353012 5:0.6279020218215476 6:-0.9888995215311005 7:-0.1884541111615241 8:-0.9958867825453037 9:-0.9892897566553295 
0.015625 1:1.0 2:-0.5555555555555556 3:-0.09055876685934494 4:-0.8592725104353012 5:0.6279020218215476 6:-0.9888995215311005 7:0.3381582096762836 8:-0.9936729963285688 9:-0.9896605326496171 
0.015625 1:1.0 2:-0.5555555555555556 3:-0.953757225433526 4:-0.9928443649373881 5:0.6280616407785251 6:-0.9888995215311005 7:0.800526445324844 8:-0.9961591768180609 9:-0.9920917068573226 
0.015625 1:1.0 2:-0.5555555555555556 3:-0.953757225433526 4:-0.9928443649373881 5:0.6280616407785251 6:-0.9888995215311005 7:0.8016653755583165 8:-0.9946653373222315 9:-0.9856944255623337 
0.015625 1:1.0 2:-0.5555555555555556 3:-0.953757225433526 4:-0.9928443649373881 5:0.6280616407785251 6:-0.9888995215311005 7:0.8016653755583165 8:-0.9966233792828816 9:-0.9910662919569916 
0.015625 1:1.0 2:-0.5555555555555556 3:-0.040462427745664775 4:0.5384615384615385 5:0.6282104192223978 6:-0.9888995215311005 7:0.7506710114635409 8:-0.9746320372622471 9:-0.9884596968487629 
0.015625 1:1.0 2:-0.5555555555555556 3:-0.040462427745664775 4:0.5384615384615385 5:0.6282104192223978 6:-0.9888995215311005 7:0.428432601199745 8:-0.997101567761707 9:-0.9960793428733067 
0.015625 1:1.0 2:-0.5555555555555556 3:-0.040462427745664775 4:0.5384615384615385 5:0.6282104192223978 6:-0.9888995215311005 7:0.27244585445386904 8:-0.9840159866586959 9:-0.9919633306528488 
0.015625 1:1.0 2:-0.5555555555555556 3:-0.040462427745664775 4:0.5384615384615385 5:0.6282104192223978 6:-0.9888995215311005 7:0.6916828036969258 8:-0.9987385974009172 9:-0.99826413045255 
0.015625 1:1.0 2:-0.5555555555555556 3:0.3256262042389211 4:-0.7948717948717949 5:0.6282362034334741 6:-0.9888995215311005 7:0.27344671762236716 8:-0.9786879813235937 9:-0.9961734322654054 
0.015625 1:1.0 2:-0.5555555555555556 3:0.3256262042389211 4:-0.7948717948717949 5:0.6282362034334741 6:-0.9888995215311005 7:0.4964006290245342 8:-0.9991368657997161 9:-0.9990503350339858 
0.015625 1:1.0 2:-0.5555555555555556 3:0.3256262042389211 4:-0.7948717948717949 5:0.6282362034334741 6:-0.9888995215311005 7:0.428432601199745 8:-0.9962404288994211 9:-0.9925741143337614 
0.015625 1:1.0 2:-0.5555555555555556 3:0.3256262042389211 4:-0.7948717948717949 5:0.6282362034334741 6:-0.9888995215311005 7:0.42767552343525495 8:-0.999493842157168 9:-0.99929193745607 
0.015625 1:1.0 2:-0.5555555555555556 3:-0.8921001926782274 4:-0.20095408467501485 5:0.6283580325643947 6:-0.9888995215311005 7:-0.24898083261128134 8:-0.9991175517803763 9:-0.9987074669102359 
0.015625 1:1.0 2:-0.5555555555555556 3:-0.8921001926782274 4:-0.20095408467501485 5:0.6283580325643947 6:-0.9888995215311005 7:-0.052864775183799284 8:-0.9970549477150249 9:-0.9956631169184289 
0.015625 1:1.0 2:-0.5555555555555556 3:-0.8921001926782274 4:-0.20095408467501485 5:0.6283580325643947 6:-0.9888995215311005 7:-0.03271772893515079 8:-0.9946453573022249 9:-0.991905920176314 
0.015625 1:1.0 2:-0.5555555555555556 3:-0.8921001926782274 4:-0.20095408467501485 5:0.6283580325643947 6:-0.9888995215311005 7:0.6916828036969258 8:-0.9995964062598687 9:-0.9993932031577357 
0.015625 1:1.0 2:-0.5555555555555556 3:-0.22157996146435455 4:0.9785330948121647 5:0.6284383739372181 6:-0.9888995215311005 7:-0.24898083261128134 8:-0.9982044648660732 9:-0.9963034032053385 
0.015625 1:1.0 2:-0.5555555555555556 3:-0.22157996146435455 4:0.9785330948121647 5:0.6284383739372181 6:-0.9888995215311005 7:-0.1884740804590802 8:-0.999001001663671 9:-0.9940540288399934 
0.015625 1:1.0 2:-0.5555555555555556 3:-0.22157996146435455 4:0.9785330948121647 5:0.6284383739372181 6:-0.9888995215311005 7:0.428432601199745 8:-0.9983036989654395 9:-0.9964469293966757 
0.015625 1:1.0 2:-0.5555555555555556 3:-0.22157996146435455 4:0.9785330948121647 5:0.6284383739372181 6:-0.9888995215311005 7:0.42856865575452296 8:-0.9985034991655058 9:-0.9968113264491262 
0.015625 1:1.0 2:-0.5555555555555556 3:-0.22157996146435455 4:0.9785330948121647 5:0.6284383739372181 6:-0.9888995215311005 7:0.4284589343393794 8:-0.9986433593055523 9:-0.9971908734884399 
0.015625 1:1.0 2:-0.5555555555555556 3:-0.22157996146435455 4:0.9785330948121647 5:0.6284383739372181 6:-0.9888995215311005 7:0.4284589343393794 8:-0.998603399265539 9:-0.9970912025222336 
0.015625 1:1.0 2:-0.5555555555555556 3:-0.953757225433526 4:-0.35241502683363146 5:0.6285344188570625 6:-0.9888995215311005 7:-0.1884321668784954 8:-0.99960040226387 9:-0.9991396402197067 
0.015625 1:1.0 2:-0.5555555555555556 3:-0.953757225433526 4:-0.35241502683363146 5:0.6285344188570625 6:-0.9888995215311005 7:0.865461555986665 8:-0.9928704655249689 9:-0.9968081369782076 
0.015625 1:1.0 2:-0.5555555555555556 3:-0.953757225433526 4:-0.35241502683363146 5:0.6285344188570625 6:-0.9888995215311005 7:0.8650667783349786 8:-0.9942018008580776 9:-0.9984387539853435 
0.015625 1:1.0 2:-0.5777777777777777 3:-0.9499036608863198 4:-0.3452593917710197 5:0.6285697771661611 6:-0.9888995215311005 7:-0.24898083261128134 8:-0.9964602091194941 9:-0.9963129716180944 
0.015625 1:1.0 2:-0.5777777777777777 3:-0.9499036608863198 4:-0.3452593917710197 5:0.6285697771661611 6:-0.9888995215311005 7:0.4965959331434897 8:-0.9918648045179684 9:-0.9923476618985405 
0.015625 1:1.0 2:-0.5777777777777777 3:-0.9499036608863198 4:-0.3452593917710197 5:0.6285697771661611 6:-0.9888995215311005 7:0.6900391768980763 8:-0.9996203822838766 9:-0.9995917477224188 
0.015625 1:1.0 2:-0.5555555555555556 3:-0.22928709055876684 4:0.005366726296958779 5:0.6318033401241887 6:-0.9888995215311005 7:-0.24924416400762572 8:-0.9981178847793778 9:-0.9976350073138555 
0.015625 1:1.0 2:-0.5555555555555556 3:-0.22928709055876684 4:0.005366726296958779 5:0.6318033401241887 6:-0.9888995215311005 7:0.9530172900355556 8:-0.9947978714549423 9:-0.996263534818856 
0.015625 1:1.0 2:-0.5777777777777777 3:-0.8921001926782274 4:-0.20751341681574242 5:0.6318799329083684 6:-0.9888995215311005 7:-0.45097773844762445 8:-0.9998961065599682 9:-0.9999162763883866 
0.015625 1:1.0 2:-0.5777777777777777 3:-0.8921001926782274 4:-0.20751341681574242 5:0.6318799329083684 6:-0.9888995215311005 7:-0.2508002331171908 8:-0.9989004355629709 9:-0.9989474745968608 
0.015625 1:1.0 2:-0.5777777777777777 3:-0.8921001926782274 4:-0.20751341681574242 5:0.6318799329083684 6:-0.9888995215311005 7:0.7575378165088813 8:-0.9978688005299617 9:-0.999362903184009 
0.015625 1:1.0 2:-0.5777777777777777 3:-0.8921001926782274 4:-0.20751341681574242 5:0.6318799329083684 6:-0.9888995215311005 7:0.8652840267369628 8:-0.9980020006633393 9:-0.9991396402197067 
0.015625 1:1.0 2:-0.5777777777777777 3:-0.8921001926782274 4:-0.20751341681574242 5:0.6318799329083684 6:-0.9888995215311005 7:0.9750712747295434 8:-0.9978288404899485 9:-0.9996627134503577 
0.015625 1:1.0 2:-0.5777777777777777 3:-0.8921001926782274 4:-0.20751341681574242 5:0.6318799329083684 6:-0.9888995215311005 7:0.9993657904706159 8:-0.9979793566406652 9:-0.9982346278465529 
0.015625 1:1.0 2:-0.5555555555555556 3:-0.9614643545279383 4:-0.4370900417412046 5:0.6325690146829683 6:-0.9888995215311005 7:0.8022381015955107 8:-0.9989423936049848 9:-0.9937964790633161 
0.015625 1:1.0 2:-0.5555555555555556 3:-0.953757225433526 4:-0.3548002385211687 5:0.632610705067479 6:-0.9888995215311005 7:0.997827496230304 8:-0.9467199493129803 9:-0.9948976438979641 
0.015625 1:1.0 2:-0.5555555555555556 3:-0.953757225433526 4:-0.3548002385211687 5:0.632610705067479 6:-0.9888995215311005 7:0.7116521012530417 8:-0.9983350009967832 9:-0.9984060619084278 
0.015625 1:1.0 2:-0.5555555555555556 3:-0.953757225433526 4:-0.3548002385211687 5:0.632610705067479 6:-0.9888995215311005 7:0.7481015553637105 8:-0.9904095930608187 9:-0.9948338544795919 
0.015625 1:1.0 2:-0.5555555555555556 3:-0.9460500963391136 4:1.0 5:0.6328050237977123 6:-0.9888995215311005 7:-0.25058059278835654 8:-0.9984988371608376 9:-0.9971254893346085 
0.015625 1:1.0 2:-0.5555555555555556 3:-0.9460500963391136 4:1.0 5:0.6328050237977123 6:-0.9888995215311005 7:-0.05670063585721585 8:-0.9983882810501342 9:-0.9970290078393208 
0.015625 1:1.0 2:-0.5555555555555556 3:-0.9460500963391136 4:1.0 5:0.6328050237977123 6:-0.9888995215311005 7:0.07607764207283196 8:-0.9980785907400315 9:-0.9988964430621632 
0.015625 1:1.0 2:-0.5555555555555556 3:-0.9460500963391136 4:1.0 5:0.6328050237977123 6:-0.9888995215311005 7:0.9756396316599867 8:-0.9999493866133192 9:-0.998197948930989 
0.015625 1:1.0 2:-0.5555555555555556 3:-0.9614643545279383 4:-0.42397137745974955 5:0.6328080631939099 6:-0.9888995215311005 7:0.7481015553637105 8:-0.978021980656706 9:-0.993972697331569 
0.015625 1:1.0 2:-0.5555555555555556 3:-0.9614643545279383 4:-0.42397137745974955 5:0.6328080631939099 6:-0.9888995215311005 7:-0.25058059278835654 8:-0.9990109916736744 9:-0.9992664216887212 
0.015625 1:1.0 2:-0.5555555555555556 3:-0.9614643545279383 4:-0.42397137745974955 5:0.6328080631939099 6:-0.9888995215311005 7:-0.24904666546036747 8:-0.9982777249394309 9:-0.998969800893291 
0.015625 1:1.0 2:-0.5555555555555556 3:-0.12524084778420042 4:0.4549791293977341 5:0.632840534076621 6:-0.9888995215311005 7:-0.25058059278835654 8:-0.9985015011635051 9:-0.9980392727527885 
0.015625 1:1.0 2:-0.5555555555555556 3:-0.12524084778420042 4:0.4549791293977341 5:0.632840534076621 6:-0.9888995215311005 7:-0.18830050118032315 8:-0.9995338021971812 9:-0.9998413238217995 
0.015625 1:1.0 2:-0.5555555555555556 3:-0.12524084778420042 4:0.4549791293977341 5:0.632840534076621 6:-0.9888995215311005 7:-0.052864775183799284 8:-0.9992540819170883 9:-0.9990040877056661 
0.015625 1:1.0 2:-0.5555555555555556 3:-0.12524084778420042 4:0.4549791293977341 5:0.632840534076621 6:-0.9888995215311005 7:0.42856865575452296 8:-0.9980885807500347 9:-0.9976485625652596 
0.015625 1:1.0 2:-0.5555555555555556 3:-0.12524084778420042 4:0.4549791293977341 5:0.632840534076621 6:-0.9888995215311005 7:0.7121566003198716 8:-0.9995204821838435 9:-0.999362903184009 
0.015625 1:1.0 2:-0.5555555555555556 3:-0.12524084778420042 4:0.4549791293977341 5:0.632840534076621 6:-0.9888995215311005 7:0.7487164780627409 8:-0.9985348011968496 9:-0.9989243509327009 
0.015625 1:1.0 2:-0.5555555555555556 3:-0.12524084778420042 4:0.4549791293977341 5:0.632840534076621 6:-0.9888995215311005 7:0.7575378165088813 8:-0.9981352007967169 9:-0.9991795086061892 
0.015625 1:1.0 2:-0.5555555555555556 3:-0.12524084778420042 4:0.4549791293977341 5:0.632840534076621 6:-0.9888995215311005 7:0.9528636603045 8:-0.9998002024639363 9:-0.9985256670678755 
0.015625 1:1.0 2:-0.5555555555555556 3:-0.12524084778420042 4:0.4549791293977341 5:0.632840534076621 6:-0.9888995215311005 7:0.975224904460599 8:-0.9997469224105853 9:-0.9996818502758693 
0.015625 1:1.0 2:-0.5555555555555556 3:-0.12524084778420042 4:0.4549791293977341 5:0.632840534076621 6:-0.9888995215311005 7:0.997827496230304 8:-0.9953379979957883 9:-0.9997217186623518 
0.015625 1:1.0 2:-0.5555555555555556 3:-0.12524084778420042 4:0.4549791293977341 5:0.6328470181218426 6:-0.9888995215311005 7:0.231908160665099 8:-0.998181820843399 9:-0.9985854696475993 
0.015625 1:1.0 2:-0.5555555555555556 3:-0.12524084778420042 4:0.4549791293977341 5:0.6328470181218426 6:-0.9888995215311005 7:-0.24898083261128134 8:-0.9974825201431669 9:-0.9984937723586895 
0.015625 1:1.0 2:-0.5555555555555556 3:-0.12524084778420042 4:0.4549791293977341 5:0.6328470181218426 6:-0.9888995215311005 7:0.9993657904706159 8:-0.9976623403232265 9:-0.9983215409290849 
0.015625 1:1.0 2:-0.5555555555555556 3:-0.12524084778420042 4:0.4549791293977341 5:0.6328470181218426 6:-0.9888995215311005 7:0.7121566003198716 8:-0.9980020006633393 9:-0.9980871148165675 
0.015625 1:1.0 2:-0.5555555555555556 3:-0.12524084778420042 4:0.4549791293977341 5:0.6328470181218426 6:-0.9888995215311005 7:-0.24898083261128134 8:-0.9965927432522048 9:-0.9969412973890592 
0.015625 1:1.0 2:-0.5555555555555556 3:-0.953757225433526 4:-0.3559928443649374 5:0.6328948379553516 6:-0.9888995215311005 7:0.9993657904706159 8:-0.9963503190094576 9:-0.9930971875644123 
0.015625 1:1.0 2:-0.5555555555555556 3:-0.18689788053949907 4:-0.874180083482409 5:0.6329817646866029 6:-0.9888995215311005 7:-0.1884541111615241 8:-0.9980799227413651 9:-0.9970585104453179 
0.015625 1:1.0 2:-0.5555555555555556 3:-0.18689788053949907 4:-0.874180083482409 5:0.6329817646866029 6:-0.9888995215311005 7:-0.1884541111615241 8:-0.9989677016303266 9:-0.9984554987076663 
0.015625 1:1.0 2:-0.5555555555555556 3:-0.18689788053949907 4:-0.874180083482409 5:0.6329817646866029 6:-0.9888995215311005 7:0.428432601199745 8:-0.9996283742918793 9:-0.9994665609888636 
0.015625 1:1.0 2:-0.5555555555555556 3:-0.18689788053949907 4:-0.874180083482409 5:0.6329817646866029 6:-0.9888995215311005 7:0.9528636603045 8:-0.9995391302025163 9:-0.9977649782537886 
0.015625 1:1.0 2:-0.5555555555555556 3:-0.18689788053949907 4:-0.874180083482409 5:0.6329817646866029 6:-0.9888995215311005 7:-0.25058059278835654 8:-0.9994838521471646 9:-0.9992592453791543 
0.015625 1:1.0 2:-0.5555555555555556 3:-0.18689788053949907 4:-0.874180083482409 5:0.6329817646866029 6:-0.9888995215311005 7:-0.24898083261128134 8:-0.9977808884419326 9:-0.9967331844116204 
0.015625 1:1.0 2:-0.5555555555555556 3:-0.18689788053949907 4:-0.874180083482409 5:0.6329817646866029 6:-0.9888995215311005 7:0.45121515584014027 8:-0.9995251441885117 9:-0.9993070874429334 
0.015625 1:1.0 2:-0.5555555555555556 3:-0.18689788053949907 4:-0.874180083482409 5:0.6329817646866029 6:-0.9888995215311005 7:0.45121515584014027 8:-0.9994838521471646 9:-0.99924648749548 
0.015625 1:1.0 2:-0.5555555555555556 3:-0.18689788053949907 4:-0.874180083482409 5:0.6329817646866029 6:-0.9888995215311005 7:0.45121515584014027 8:-0.9996736623372277 9:-0.9995279583040467 
0.015625 1:1.0 2:-0.5555555555555556 3:-0.9267822736030829 4:-0.24388789505068575 5:0.6368036027786768 6:-0.9888995215311005 7:0.9756240512190362 8:-0.998039962701352 9:-0.9956360064156208 
0.015625 1:1.0 2:-0.5555555555555556 3:-0.9267822736030829 4:-0.24388789505068575 5:0.6368036027786768 6:-0.9888995215311005 7:-0.24898083261128134 8:-0.9999580446219888 9:-0.9999242500656832 
0.015625 1:1.0 2:-0.5555555555555556 3:-0.9614643545279383 4:-0.43768634466308887 5:0.6369212274115241 6:-0.9888995215311005 7:0.9997825124053308 8:-0.99907825774103 9:-0.9974404495878206 
0.015625 1:1.0 2:-0.5555555555555556 3:-0.9614643545279383 4:-0.43768634466308887 5:0.6369212274115241 6:-0.9888995215311005 7:0.6914458054402157 8:-0.9995557802191886 9:-0.9991922664898637 
0.015625 1:1.0 2:-0.5555555555555556 3:-0.20616570327552985 4:0.27847346451997623 5:0.6371227393794252 6:-0.9888995215311005 7:-0.24970499395122847 8:-0.9996150542785416 9:-0.9993278190039043 
0.015625 1:1.0 2:-0.5555555555555556 3:-0.20616570327552985 4:0.27847346451997623 5:0.6371227393794252 6:-0.9888995215311005 7:0.9529733817196435 8:-0.9994339020971481 9:-0.9991005692009538 
0.015625 1:1.0 2:-0.5555555555555556 3:-0.20616570327552985 4:0.27847346451997623 5:0.6371227393794252 6:-0.9888995215311005 7:0.9993657904706159 8:-0.9986120572742085 9:-0.9978407281881054 
0.015625 1:1.0 2:-0.5555555555555556 3:-0.49518304431599225 4:-0.9218843172331544 5:0.6371754729034536 6:-0.9888995215311005 7:0.4970828767838964 8:-0.9953379979957883 9:-0.9929680139922089 
0.015625 1:1.0 2:-0.5555555555555556 3:-0.9499036608863198 4:-0.3452593917710197 5:0.6371947730693084 6:-0.9888995215311005 7:0.8652840267369628 8:-0.9512820538811616 9:-0.9912512812702706 
0.015625 1:1.0 2:-0.5555555555555556 3:-0.9499036608863198 4:-0.3452593917710197 5:0.6371947730693084 6:-0.9888995215311005 7:0.7481015553637105 8:-0.9918361664892923 9:-0.9940165525566999 
0.015625 1:1.0 2:-0.5555555555555556 3:-0.5645472061657033 4:-0.9326177698270721 5:0.6372494822008652 6:-0.9888995215311005 7:0.49481844621816506 8:-0.9941645048207319 9:-0.991197857632384 
0.015625 1:1.0 2:-0.5555555555555556 3:-0.5645472061657033 4:-0.9326177698270721 5:0.6372494822008652 6:-0.9888995215311005 7:0.1407540228350168 8:-0.99722078188108 9:-0.9962077190777804 
0.015625 1:1.0 2:-0.5555555555555556 3:-0.5645472061657033 4:-0.9326177698270721 5:0.6372494822008652 6:-0.9888995215311005 7:0.7358347011506678 8:-0.9959906786493382 9:-0.9931426375250024 
0.015625 1:1.0 2:-0.5555555555555556 3:-0.5645472061657033 4:-0.9326177698270721 5:0.6372494822008652 6:-0.9888995215311005 7:0.4965959331434897 8:-0.9989883476510001 9:-0.9985471959965762 
0.015625 1:1.0 2:-0.5555555555555556 3:-0.9922928709055877 4:-0.4591532498509243 5:0.6372782551515359 6:-0.9888995215311005 7:0.8874718913072801 8:-0.9996270422905456 9:-0.9998548790732036 
0.015625 1:1.0 2:-0.5555555555555556 3:-0.9922928709055877 4:-0.4591532498509243 5:0.6372782551515359 6:-0.9888995215311005 7:-0.2504052360226743 8:-0.9984410815830052 9:-0.9977609914151403 
0.015625 1:1.0 2:-0.5555555555555556 3:-0.9922928709055877 4:-0.4591532498509243 5:0.6372782551515359 6:-0.9888995215311005 7:0.6916828036969258 8:-0.9992205421235039 9:-0.9985918485894365 
0.015625 1:1.0 2:-0.5555555555555556 3:-0.9922928709055877 4:-0.4591532498509243 5:0.6372782551515359 6:-0.9888995215311005 7:0.7377877423402222 8:-0.9998681345319589 9:-0.9998110238480727 
0.015625 1:1.0 2:-0.5777777777777777 3:0.24084778420038533 4:-0.8079904591532499 5:0.6408644387250888 6:-0.9888995215311005 7:-0.054771733378993215 8:-0.9992274418904128 9:-0.9987983668314161 
0.015625 1:1.0 2:-0.5777777777777777 3:0.24084778420038533 4:-0.8079904591532499 5:0.6408644387250888 6:-0.9888995215311005 7:0.4970828767838964 8:-0.9988777915402968 9:-0.998335096180489 
0.015625 1:1.0 2:-0.5777777777777777 3:0.24084778420038533 4:-0.8079904591532499 5:0.6408644387250888 6:-0.9888995215311005 7:0.9993833656468936 8:-0.9992440919070851 9:-0.9985527775706836 
0.015625 1:1.0 2:-0.5777777777777777 3:0.24084778420038533 4:-0.8079904591532499 5:0.6408644387250888 6:-0.9888995215311005 7:0.25343353171963656 8:-0.9861538487994057 9:-0.9875674423592835 
0.015625 1:1.0 2:-0.5777777777777777 3:0.24084778420038533 4:-0.8079904591532499 5:0.6408644387250888 6:-0.9888995215311005 7:0.45121515584014027 8:-0.9981019007633725 9:-0.9945468020969177 
0.015625 1:1.0 2:-0.5555555555555556 3:-0.4296724470134875 4:0.0017889087656528524 5:0.6410378869347655 6:-0.9888995215311005 7:0.9993657904706159 8:-0.9985641052261927 9:-0.9969062132089546 
0.004202720999910712 1:1.0 2:-0.5555555555555556 3:-0.4296724470134875 4:0.0017889087656528524 5:0.6410378869347655 6:-0.9888995215311005 7:-0.1884740804590802 8:-0.9993606420237904 9:-0.9965561687756379 
0.015625 1:1.0 2:-0.5555555555555556 3:-0.9190751445086706 4:-0.22599880739415623 5:0.6410434591611276 6:-0.9888995215311005 7:-0.24886911646081056 8:-0.9996117242752071 9:-0.9995965319287966 
0.015625 1:1.0 2:-0.5555555555555556 3:-0.9190751445086706 4:-0.22599880739415623 5:0.6410434591611276 6:-0.9888995215311005 7:-0.3412126344310481 8:-0.9996676683312257 9:-0.999666700289006 
0.015625 1:1.0 2:-0.5555555555555556 3:0.24470134874759153 4:0.6398330351818724 5:0.6498933703828975 6:-0.9888995215311005 7:0.8874718913072801 8:-0.9969230795829811 9:-0.9937382712190517 
0.015625 1:1.0 2:-0.5555555555555556 3:0.24470134874759153 4:0.6398330351818724 5:0.6498933703828975 6:-0.9888995215311005 7:-0.05202891744323612 8:-0.9981618408233924 9:-0.9979324254770153 
0.015625 1:1.0 2:-0.5555555555555556 3:0.24470134874759153 4:0.6398330351818724 5:0.6498933703828975 6:-0.9888995215311005 7:0.231908160665099 8:-0.997564438225194 9:-0.9969971131301348 
0.015625 1:1.0 2:-0.5555555555555556 3:0.24470134874759153 4:0.6398330351818724 5:0.6498933703828975 6:-0.9888995215311005 7:-0.1884740804590802 8:-0.9980219806833459 9:-0.9932439032266681 
0.015625 1:1.0 2:-0.5555555555555556 3:0.24470134874759153 4:0.6398330351818724 5:0.6498933703828975 6:-0.9888995215311005 7:0.9967544207902006 8:-0.9650349676523943 9:-0.9958146167870625 
0.015625 1:1.0 2:-0.5555555555555556 3:0.24470134874759153 4:0.6398330351818724 5:0.6498933703828975 6:-0.9888995215311005 7:-0.3631788617427757 8:-0.9972107918710766 9:-0.9968280711714488 
0.015625 1:1.0 2:-0.5555555555555556 3:-0.9499036608863198 4:-0.3452593917710197 5:0.6501342425315577 6:-0.9888995215311005 7:-0.25062467885296125 8:-0.9979753606366638 9:-0.9967284002052424 
0.015625 1:1.0 2:-0.5555555555555556 3:-0.9499036608863198 4:-0.3452593917710197 5:0.6501342425315577 6:-0.9888995215311005 7:0.953237590887309 8:-0.9968364994962857 9:-0.9948872781174786 
0.015625 1:1.0 2:-0.5555555555555556 3:0.5452793834296725 4:0.8276684555754323 5:0.650146552086158 6:-0.9888995215311005 7:0.3379629055573281 8:-0.9943909450474738 9:-0.9918995412344768 
0.015625 1:1.0 2:-0.5555555555555556 3:0.5452793834296725 4:0.8276684555754323 5:0.650146552086158 6:-0.9888995215311005 7:0.9750712747295434 8:-0.9871062297530553 9:-0.9984570934431256 
0.015625 1:1.0 2:-0.5555555555555556 3:0.5452793834296725 4:0.8276684555754323 5:0.650146552086158 6:-0.9888995215311005 7:0.4294705657870026 8:-0.9988611415236246 9:-0.998773648431797 
0.015625 1:1.0 2:-0.5555555555555556 3:0.5452793834296725 4:0.8276684555754323 5:0.650146552086158 6:-0.9888995215311005 7:0.8022381015955107 8:-0.9999573786213218 9:-0.9992353243472648 
0.015625 1:1.0 2:-0.5555555555555556 3:-0.18689788053949907 4:0.26714370900417417 5:0.6503209121146938 6:-0.9888995215311005 7:-0.24886911646081056 8:-0.9994365660998156 9:-0.9988677378238957 
0.015625 1:1.0 2:-0.5555555555555556 3:-0.9383429672447013 4:-0.24985092426952893 5:0.6503398576843256 6:-0.9888995215311005 7:-0.2508002331171908 8:-0.9970562797163587 9:-0.9959126930178096 
0.015625 1:1.0 2:-0.5555555555555556 3:-0.8612716763005781 4:-0.9785330948121646 5:0.6544451194718259 6:-0.9888995215311005 7:0.9993657904706159 8:-0.9986396963018844 9:-0.9907010975368115 
0.015625 1:1.0 2:-0.5555555555555556 3:-0.8612716763005781 4:-0.9785330948121646 5:0.6544451194718259 6:-0.9888995215311005 7:0.9993833656468936 8:-0.9997629064265906 9:-0.9985304512742534 
0.015625 1:1.0 2:-0.5555555555555556 3:-0.8612716763005781 4:-0.9785330948121646 5:0.6544451194718259 6:-0.9888995215311005 7:0.231908160665099 8:-0.9994085940718063 9:-0.9973615101825852 
0.015625 1:1.0 2:-0.5555555555555556 3:-0.8612716763005781 4:-0.9785330948121646 5:0.6544451194718259 6:-0.9888995215311005 7:-0.23129374049015006 8:-0.999561441224857 9:-0.9970441578261842 
0.015625 1:1.0 2:-0.5555555555555556 3:0.3102119460500963 4:0.6940966010733454 5:0.6545711024442167 6:-0.9888995215311005 7:0.5159549601885776 8:-0.9968364994962857 9:-0.9938267790370429 
0.015625 1:1.0 2:-0.5555555555555556 3:0.3102119460500963 4:0.6940966010733454 5:0.6545711024442167 6:-0.9888995215311005 7:-0.25095581808386425 8:-0.9970263096863488 9:-0.9957994668001992 
0.015625 1:1.0 2:-0.5555555555555556 3:0.3102119460500963 4:0.6940966010733454 5:0.6545711024442167 6:-0.9888995215311005 7:0.7112351598754965 8:-0.9974692001298291 9:-0.9963648005205217 
0.015625 1:1.0 2:-0.5555555555555556 3:0.3102119460500963 4:0.6940966010733454 5:0.6545711024442167 6:-0.9888995215311005 7:0.9528636603045 8:-0.99963037229388 9:-0.996128779672545 
0.015625 1:1.0 2:-0.5555555555555556 3:0.3102119460500963 4:0.6940966010733454 5:0.6545711024442167 6:-0.9888995215311005 7:0.11992452913403051 8:-0.9979753606366638 9:-0.997019439426565 
0.015625 1:1.0 2:-0.5555555555555556 3:0.3102119460500963 4:0.6940966010733454 5:0.6545711024442167 6:-0.9888995215311005 7:0.7110157170452094 8:-0.9981019007633725 9:-0.9958329562448445 
0.015625 1:1.0 2:-0.5555555555555556 3:-0.5260115606936416 4:-0.9266547406082289 5:0.6546876632883947 6:-0.9888995215311005 7:-0.24898083261128134 8:-0.9991461898090526 9:-0.9959477771979143 
0.015625 1:1.0 2:-0.5555555555555556 3:-0.5260115606936416 4:-0.9266547406082289 5:0.6546876632883947 6:-0.9888995215311005 7:-0.24898083261128134 8:-0.9989210815836445 9:-0.9943761654027724 
0.015625 1:1.0 2:-0.5555555555555556 3:-0.5260115606936416 4:-0.9266547406082289 5:0.6546876632883947 6:-0.9888995215311005 7:0.45121515584014027 8:-0.9996536823172211 9:-0.9978941518259921 
0.015625 1:1.0 2:-0.5555555555555556 3:0.3256262042389211 4:0.7078115682766846 5:0.6581060721918397 6:-0.9888995215311005 7:0.42964612005123204 8:-0.9984682011301608 9:-0.9975799889405096 
0.015625 1:1.0 2:-0.5555555555555556 3:0.3256262042389211 4:0.7078115682766846 5:0.6581060721918397 6:-0.9888995215311005 7:0.865461555986665 8:-0.991208793861084 9:-0.9963169584567426 
0.015625 1:1.0 2:-0.5555555555555556 3:0.3256262042389211 4:0.7078115682766846 5:0.6581060721918397 6:-0.9888995215311005 7:0.6901467038849167 8:-0.9976690003298955 9:-0.9963392847531728 
0.015625 1:1.0 2:-0.5555555555555556 3:0.3256262042389211 4:0.7078115682766846 5:0.6581060721918397 6:-0.9888995215311005 7:0.3381582096762836 8:-0.9982684009300944 9:-0.9958138194193329 
0.015625 1:1.0 2:-0.5555555555555556 3:0.3256262042389211 4:0.7078115682766846 5:0.6581060721918397 6:-0.9888995215311005 7:0.6919461350932701 8:-0.9991342017970486 9:-0.998705074807047 
0.015625 1:1.0 2:-0.5555555555555556 3:0.3256262042389211 4:0.7078115682766846 5:0.6581060721918397 6:-0.9888995215311005 7:0.9997807568626886 8:-0.9951381977957219 9:-0.993015856055988 
0.015625 1:1.0 2:-0.5555555555555556 3:0.3256262042389211 4:0.7078115682766846 5:0.6581060721918397 6:-0.9888995215311005 7:0.6919241908102414 8:-0.9982950409567699 9:-0.9975919494564544 
0.015625 1:1.0 2:-0.5555555555555556 3:0.3256262042389211 4:0.7078115682766846 5:0.6581060721918397 6:-0.9888995215311005 7:0.428432601199745 8:-0.9978688005299617 9:-0.9969133895185215 
0.015625 1:1.0 2:-0.5555555555555556 3:0.3256262042389211 4:0.7078115682766846 5:0.6581060721918397 6:-0.9888995215311005 7:0.8655034695672497 8:-0.9910089936610177 9:-0.9904204240959744 
0.015625 1:1.0 2:-0.5555555555555556 3:0.3256262042389211 4:0.7078115682766846 5:0.6581060721918397 6:-0.9888995215311005 7:0.8682903935118944 8:-0.9946719973289004 9:-0.9985990248990034 
0.015625 1:1.0 2:-0.5555555555555556 3:-0.12524084778420042 4:0.4549791293977341 5:0.6584848316146645 6:-0.9888995215311005 7:-0.1884321668784954 8:-0.9996403623038833 9:-0.9992042270058085 
0.015625 1:1.0 2:-0.5555555555555556 3:-0.12524084778420042 4:0.4549791293977341 5:0.6584848316146645 6:-0.9888995215311005 7:-0.1884321668784954 8:-0.999706962370572 9:-0.9993868242158985 
0.015625 1:1.0 2:-0.5555555555555556 3:-0.12524084778420042 4:0.4549791293977341 5:0.6584848316146645 6:-0.9888995215311005 7:-0.3847062231437841 8:-0.9997402624039164 9:-0.9994099478800583 
0.015625 1:1.0 2:-0.5555555555555556 3:-0.12524084778420042 4:0.4549791293977341 5:0.6584848316146645 6:-0.9888995215311005 7:-0.24970499395122847 8:-0.9996403623038833 9:-0.9991396402197067 
0.015625 1:1.0 2:-0.5555555555555556 3:-0.12524084778420042 4:0.4549791293977341 5:0.6584848316146645 6:-0.9888995215311005 7:0.7575378165088813 8:-0.9940059966620126 9:-0.9985655354543581 
0.015625 1:1.0 2:-0.5555555555555556 3:-0.8921001926782274 4:-0.20095408467501485 5:0.6587607074762003 6:-0.9888995215311005 7:-0.3629574636768709 8:-0.9992674019304261 9:-0.9990790402722532 
0.015625 1:1.0 2:-0.5777777777777777 3:-0.4335260115606936 4:-0.004174120453190211 5:0.6590352156094472 6:-0.9888995215311005 7:-0.45097773844762445 8:-0.9982950409567699 9:-0.9972450944940562 
0.015625 1:1.0 2:-0.5555555555555556 3:-0.19460500963391136 4:0.3369111508646392 5:0.6590967127258456 6:-0.9888995215311005 7:-0.25058059278835654 8:-0.9981185507800447 9:-0.9980185411918175 
0.015625 1:1.0 2:-0.5555555555555556 3:-0.19460500963391136 4:0.3369111508646392 5:0.6590967127258456 6:-0.9888995215311005 7:-0.3631788617427757 8:-0.9984215810834787 9:-0.9987154405875325 
0.015625 1:1.0 2:-0.5555555555555556 3:-0.005780346820809301 4:0.5360763267740012 5:0.6635438052723697 6:-0.9888995215311005 7:-0.24902274619186615 8:-0.9972241118844144 9:-0.9959796719071002 
0.015625 1:1.0 2:-0.5555555555555556 3:-0.005780346820809301 4:0.5360763267740012 5:0.6635438052723697 6:-0.9888995215311005 7:0.14132062422281777 8:-0.9982897129514349 9:-0.990172442732053 
0.015625 1:1.0 2:-0.5555555555555556 3:-0.005780346820809301 4:0.5360763267740012 5:0.6635438052723697 6:-0.9888995215311005 7:-0.18872181166461943 8:-0.9976083942692087 9:-0.9962212743291845 
0.015625 1:1.0 2:-0.5555555555555556 3:-0.005780346820809301 4:0.5360763267740012 5:0.6635438052723697 6:-0.9888995215311005 7:0.6900150381867447 8:-0.9979380645993181 9:-0.9930884165193862 
0.015625 1:1.0 2:-0.5555555555555556 3:-0.005780346820809301 4:0.5360763267740012 5:0.6635438052723697 6:-0.9888995215311005 7:0.6897319569356744 8:-0.9986660033282264 9:-0.9921427383920203 
0.015625 1:1.0 2:-0.5555555555555556 3:-0.005780346820809301 4:0.5360763267740012 5:0.6635438052723697 6:-0.9888995215311005 7:0.6916828036969258 8:-0.9980412947026857 9:-0.9969995052333237 
0.015625 1:1.0 2:-0.5555555555555556 3:-0.005780346820809301 4:0.5360763267740012 5:0.6635438052723697 6:-0.9888995215311005 7:0.4970828767838964 8:-0.998745923408253 9:-0.9983494487996227 
0.015625 1:1.0 2:-0.5555555555555556 3:-0.21387283236994215 4:-0.9189028026237329 5:0.6636178652263847 6:-0.9888995215311005 7:0.9969078310784261 8:-0.9764235790561753 9:-0.9943554338418015 
0.015625 1:1.0 2:-0.5555555555555556 3:-0.21387283236994215 4:-0.9189028026237329 5:0.6636178652263847 6:-0.9888995215311005 7:-0.24970499395122847 8:-0.9989124235749749 9:-0.9976573336102857 
0.015625 1:1.0 2:-0.5555555555555556 3:-0.21387283236994215 4:-0.9189028026237329 5:0.6636178652263847 6:-0.9888995215311005 7:-0.24886911646081056 8:-0.9991675018303929 9:-0.9983661935219453 
0.015625 1:1.0 2:-0.5555555555555556 3:-0.21387283236994215 4:-0.9189028026237329 5:0.6636178652263847 6:-0.9888995215311005 7:0.9969078310784261 8:-0.9976090602698755 9:-0.9982258568015268 
0.015625 1:1.0 2:-0.5555555555555556 3:-0.21387283236994215 4:-0.9189028026237329 5:0.6636178652263847 6:-0.9888995215311005 7:0.4965959331434897 8:-0.997641694302553 9:-0.9958504983348968 
0.015625 1:1.0 2:-0.5555555555555556 3:0.3217726396917149 4:0.7030411449016101 5:0.6673917821717428 6:-0.9888995215311005 7:0.25259986401851964 8:-0.9760239786560426 9:-0.9913892258875002 
0.015625 1:1.0 2:-0.5555555555555556 3:0.3217726396917149 4:0.7030411449016101 5:0.6673917821717428 6:-0.9888995215311005 7:0.2298039431153318 8:-0.9440559466454291 9:-0.9906237528670353 
0.015625 1:1.0 2:-0.5555555555555556 3:-0.5606936416184971 4:-0.9320214669051878 5:0.6674806338539194 6:-0.9888995215311005 7:0.8694314962293868 8:-0.9986999693622377 9:-0.996498758299103 
0.015625 1:1.0 2:-0.5555555555555556 3:-0.5606936416184971 4:-0.9320214669051878 5:0.6674806338539194 6:-0.9888995215311005 7:0.9525386654728449 8:-0.999820182483943 9:-0.9995311477749653 
0.015625 1:1.0 2:-0.5555555555555556 3:-0.5606936416184971 4:-0.9320214669051878 5:0.6674806338539194 6:-0.9888995215311005 7:0.9530170508428706 8:-0.999992010656 9:-0.9997950764934798 
0.015625 1:1.0 2:-0.5555555555555556 3:-0.5606936416184971 4:-0.9320214669051878 5:0.6674806338539194 6:-0.9888995215311005 7:-0.05356677279788735 8:-0.9990622737250247 9:-0.9981485121317507 
0.015625 1:1.0 2:-0.5555555555555556 3:-0.5606936416184971 4:-0.9320214669051878 5:0.6674806338539194 6:-0.9888995215311005 7:0.689993093903716 8:-0.999736932400582 9:-0.9994019742027619 
0.015625 1:1.0 2:-0.5555555555555556 3:-0.5606936416184971 4:-0.9320214669051878 5:0.6674806338539194 6:-0.9888995215311005 7:-0.24898083261128134 8:-0.9993646380277917 9:-0.9980990753325123 
0.015625 1:1.0 2:-0.5555555555555556 3:-0.5606936416184971 4:-0.9320214669051878 5:0.6674806338539194 6:-0.9888995215311005 7:-0.24886911646081056 8:-0.9996876483512322 9:-0.9993724715967648 
0.015625 1:1.0 2:-0.5555555555555556 3:0.24084778420038533 4:-0.8079904591532499 5:0.6676864009764971 6:-0.9888995215311005 7:0.23150022061300923 8:-0.968086582708074 9:-0.9923588250467557 
0.015625 1:1.0 2:-0.5555555555555556 3:0.24084778420038533 4:-0.8079904591532499 5:0.6676864009764971 6:-0.9888995215311005 7:0.23171529016713133 8:-0.9918248444779552 9:-0.9970640920194255 
0.015625 1:1.0 2:-0.5555555555555556 3:0.24084778420038533 4:-0.8079904591532499 5:0.6676864009764971 6:-0.9888995215311005 7:-0.24898083261128134 8:-0.9983643050261263 9:-0.9975528784377015 
0.015625 1:1.0 2:-0.5555555555555556 3:0.24084778420038533 4:-0.8079904591532499 5:0.6676864009764971 6:-0.9888995215311005 7:0.9993657904706159 8:-0.9986247112868794 9:-0.9983542330060006 
0.015625 1:1.0 2:-0.5555555555555556 3:-0.953757225433526 4:-0.3548002385211687 5:0.6677578267871409 6:-0.9888995215311005 7:-0.3412126344310481 8:-0.9910755937277064 9:-0.9935899608213365 
0.015625 1:1.0 2:-0.5555555555555556 3:-0.8574181117533719 4:-0.9779367918902803 5:0.6678294552241977 6:-0.9888995215311005 7:0.4965783777170667 8:-0.9992654039284254 9:-0.999024819266637 
0.015625 1:1.0 2:-0.5555555555555556 3:-0.8574181117533719 4:-0.9779367918902803 5:0.6678294552241977 6:-0.9888995215311005 7:-0.18830050118032315 8:-0.9967552474149254 9:-0.9994506136342706 
0.015625 1:1.0 2:-0.5555555555555556 3:-0.8574181117533719 4:-0.9779367918902803 5:0.6678294552241977 6:-0.9888995215311005 7:-0.3631788617427757 8:-0.9986593433215576 9:-0.9984435381917215 
0.015625 1:1.0 2:-0.5555555555555556 3:-0.8574181117533719 4:-0.9779367918902803 5:0.6678294552241977 6:-0.9888995215311005 7:0.9969078310784261 8:-0.9954565461144942 9:-0.9992935321915293 
0.015625 1:1.0 2:-0.5555555555555556 3:-0.8574181117533719 4:-0.9779367918902803 5:0.6678294552241977 6:-0.9888995215311005 7:0.6920997472688992 8:-0.9993486540117864 9:-0.9991197060264654 
0.015625 1:1.0 2:-0.5555555555555556 3:-0.8574181117533719 4:-0.9779367918902803 5:0.6678294552241977 6:-0.9888995215311005 7:-0.24898083261128134 8:-0.9983623070241257 9:-0.99764776519753 
0.015625 1:1.0 2:-0.5555555555555556 3:-0.8574181117533719 4:-0.9779367918902803 5:0.6678294552241977 6:-0.9888995215311005 7:0.31707392309947946 8:-0.9930735957283697 9:-0.9975959362951026 
0.015625 1:1.0 2:-0.5555555555555556 3:-0.8574181117533719 4:-0.9779367918902803 5:0.6678294552241977 6:-0.9888995215311005 7:0.36056771150519085 8:-0.9994372321004825 9:-0.9984443355594511 
0.015625 1:1.0 2:-0.5555555555555556 3:0.20616570327552997 4:0.5831842576028623 5:0.6678711962653114 6:-0.9888995215311005 7:0.29519393682005446 8:-0.9915717642245379 9:-0.979819420130266 
0.015625 1:1.0 2:-0.5555555555555556 3:-0.49518304431599225 4:-0.9218843172331544 5:0.6679239804459431 6:-0.9888995215311005 7:-0.24886911646081056 8:-0.9934678681231673 9:-0.9882699233291059 
0.015625 1:1.0 2:-0.5555555555555556 3:-0.49518304431599225 4:-0.9218843172331544 5:0.6679239804459431 6:-0.9888995215311005 7:-0.24886911646081056 8:-0.9886173852662237 9:-0.9794231283686294 
0.015625 1:1.0 2:-0.5555555555555556 3:-0.9614643545279383 4:-0.9940369707811568 5:0.6679881623623161 6:-0.9888995215311005 7:-0.24898083261128134 8:-0.9941858168420723 9:-0.9887236255672773 
0.015625 1:1.0 2:-0.5777777777777777 3:-0.49518304431599225 4:-0.9218843172331544 5:0.6715717624491009 6:-0.9888995215311005 7:-0.1884541111615241 8:-0.9948318374889535 9:-0.9907194369945934 
0.015625 1:1.0 2:-0.5555555555555556 3:1.0 4:-0.6905187835420394 5:0.6716426816937116 6:-0.9888995215311005 7:0.6892908768467976 8:-0.9993932760564679 9:-0.9987353747807737 
0.015625 1:1.0 2:-0.5555555555555556 3:1.0 4:-0.6905187835420394 5:0.6716426816937116 6:-0.9888995215311005 7:0.428432601199745 8:-0.9988531495156219 9:-0.9981469173962914 
0.015625 1:1.0 2:-0.5555555555555556 3:1.0 4:-0.6905187835420394 5:0.6716426816937116 6:-0.9888995215311005 7:0.997827496230304 8:-0.9754578780891879 9:-0.9976501573007188 
0.015625 1:1.0 2:-0.5555555555555556 3:1.0 4:-0.6905187835420394 5:0.6716426816937116 6:-0.9888995215311005 7:-0.25097337351028726 8:-0.9990529497156883 9:-0.9984929749909598 
0.015625 1:1.0 2:-0.5777777777777777 3:-0.5645472061657033 4:-0.9326177698270721 5:0.6716742407575633 6:-0.9888995215311005 7:0.997827496230304 8:-0.9871248777717281 9:-0.9987672694899598 
0.015625 1:1.0 2:-0.5777777777777777 3:-0.5645472061657033 4:-0.9326177698270721 5:0.6716742407575633 6:-0.9888995215311005 7:-0.1884321668784954 8:-0.9996936423572342 9:-0.9994506136342706 
0.015625 1:1.0 2:-0.5777777777777777 3:-0.5645472061657033 4:-0.9326177698270721 5:0.6716742407575633 6:-0.9888995215311005 7:0.7506710114635409 8:-0.9977622404232597 9:-0.9983933040247535 
0.015625 1:1.0 2:-0.5777777777777777 3:-0.5645472061657033 4:-0.9326177698270721 5:0.6716742407575633 6:-0.9888995215311005 7:0.7481015553637105 8:-0.9976024002632067 9:-0.9971302735409865 
0.015625 1:1.0 2:-0.5777777777777777 3:-0.5645472061657033 4:-0.9326177698270721 5:0.6716742407575633 6:-0.9888995215311005 7:-0.24886911646081056 8:-0.999766902430592 9:-0.9997273002364594 
0.015625 1:1.0 2:-0.5555555555555556 3:-0.8998073217726397 4:-0.21466905187835417 5:0.6718698765594826 6:-0.9888995215311005 7:-0.45097773844762445 8:-0.9982437589054196 9:-0.9970361841488877 
0.015625 1:1.0 2:-0.5555555555555556 3:-0.6069364161849711 4:-0.9391771019677997 5:0.6718923174347415 6:-0.9888995215311005 7:0.9993657904706159 8:-0.9958707985292984 9:-0.9935740134667436 
0.015625 1:1.0 2:-0.5555555555555556 3:-0.6069364161849711 4:-0.9391771019677997 5:0.6718923174347415 6:-0.9888995215311005 7:0.953237590887309 8:-0.9993806220437971 9:-0.9981469173962914 
0.015625 1:1.0 2:-0.5555555555555556 3:-0.6069364161849711 4:-0.9391771019677997 5:0.6718923174347415 6:-0.9888995215311005 7:0.9529733817196435 8:-0.9998128564766072 9:-0.9985671301898174 
0.015625 1:1.0 2:-0.5555555555555556 3:0.9267822736030829 4:0.8729874776386404 5:0.6807297671321013 6:-0.9888995215311005 7:0.7358347011506678 8:-0.9950049976623443 9:-0.9956950116276149 
0.015625 1:1.0 2:-0.5555555555555556 3:0.9267822736030829 4:0.8729874776386404 5:0.6807297671321013 6:-0.9888995215311005 7:-0.24886911646081056 8:-0.9988811215436312 9:-0.9978574729104281 
0.015625 1:1.0 2:-0.5555555555555556 3:0.9267822736030829 4:0.8729874776386404 5:0.6807297671321013 6:-0.9888995215311005 7:0.25369884029588174 8:-0.9989543816169889 9:-0.9964453346612164 
0.015625 1:1.0 2:-0.5555555555555556 3:0.9267822736030829 4:0.8729874776386404 5:0.6807297671321013 6:-0.9888995215311005 7:-0.18830050118032315 8:-0.9933399959951249 9:-0.9971302735409865 
0.015625 1:1.0 2:-0.5555555555555556 3:0.9267822736030829 4:0.8729874776386404 5:0.6807297671321013 6:-0.9888995215311005 7:0.9756240512190362 8:-0.9992607419237572 9:-0.9981421331899134 
0.015625 1:1.0 2:-0.5555555555555556 3:0.5452793834296725 4:0.8187239117471676 5:0.6851337509092228 6:-0.9888995215311005 7:-0.18830050118032315 8:-0.9895104921605201 9:-0.9957811273424172 
0.015625 1:1.0 2:-0.5555555555555556 3:0.5452793834296725 4:0.8187239117471676 5:0.6851337509092228 6:-0.9888995215311005 7:0.4950620277597835 8:-0.9988378315002835 9:-0.9974962653288962 
0.015625 1:1.0 2:-0.5555555555555556 3:-0.9614643545279383 4:-0.9940369707811568 5:0.6853289814583154 6:-0.9888995215311005 7:0.14132062422281777 8:-0.9939693666253339 9:-0.9921307778760755 
0.015625 1:1.0 2:-0.5555555555555556 3:-0.9460500963391136 4:1.0 5:0.6891875962443803 6:-0.9888995215311005 7:0.4298896993984225 8:-0.9977888804499352 9:-0.9956328169447022 
0.015625 1:1.0 2:-0.5555555555555556 3:-0.9460500963391136 4:1.0 5:0.6891875962443803 6:-0.9888995215311005 7:0.9528636603045 8:-0.9998934425573006 9:-0.9992608401146137 
0.015625 1:1.0 2:-0.5555555555555556 3:-0.9460500963391136 4:1.0 5:0.6891875962443803 6:-0.9888995215311005 7:-0.052864775183799284 8:-0.99729137795177 9:-0.9972116050494109 
0.015625 1:1.0 2:-0.5555555555555556 3:-0.9460500963391136 4:1.0 5:0.6891875962443803 6:-0.9888995215311005 7:0.42767552343525495 8:-0.9980099926713419 9:-0.9978088334789194 
0.015625 1:1.0 2:-0.5555555555555556 3:-0.9460500963391136 4:1.0 5:0.6891875962443803 6:-0.9888995215311005 7:0.8022381015955107 8:-0.9999966726606683 9:-0.9999689026585437 
0.015625 1:1.0 2:-0.5555555555555556 3:0.5452793834296725 4:0.8073941562313656 5:0.6895763856746571 6:-0.9888995215311005 7:-0.24886911646081056 8:-0.9855857502305505 9:-0.983606119478378 
0.015625 1:1.0 2:-0.5555555555555556 3:-0.005780346820809301 4:0.5360763267740012 5:0.6897440083749549 6:-0.9888995215311005 7:-0.25058059278835654 8:-0.9994205820838103 9:-0.9991125297168986 
0.015625 1:1.0 2:-0.5555555555555556 3:-0.005780346820809301 4:0.5360763267740012 5:0.6897440083749549 6:-0.9888995215311005 7:-0.1884740804590802 8:-0.9995304721938468 9:-0.9992472848632096 
0.015625 1:1.0 2:-0.5555555555555556 3:0.9267822736030829 4:-0.7018485390578414 5:0.842177123548872 6:-0.9888995215311005 7:-0.24886911646081056 8:-0.988378291026811 9:-0.9728536156440359 
0.015625 1:1.0 2:-0.5555555555555556 3:0.9267822736030829 4:0.8729874776386404 5:0.8509638153297316 6:-0.9888995215311005 7:0.428432601199745 8:-0.9996323702958806 9:-0.9993270216361747 
0.015625 1:1.0 2:-0.5555555555555556 3:0.9267822736030829 4:0.8729874776386404 5:0.8509638153297316 6:-0.9888995215311005 7:0.25308241880232085 8:-0.994965037622331 9:-0.9966247424003878 
0.015625 1:1.0 2:-0.5555555555555556 3:0.9267822736030829 4:0.8729874776386404 5:0.8509638153297316 6:-0.9888995215311005 7:0.31707392309947946 8:-0.9957802224386016 9:-0.9987377668839627 
0.015625 1:1.0 2:-0.5555555555555556 3:0.9267822736030829 4:0.8729874776386404 5:0.8509638153297316 6:-0.9888995215311005 7:0.23133782874918296 8:-0.9952713979290995 9:-0.9993772558031426 
0.015625 1:1.0 2:-0.5555555555555556 3:0.9267822736030829 4:0.8729874776386404 5:0.8509638153297316 6:-0.9888995215311005 7:0.36012663141631407 8:-0.999760242423923 9:-0.9995558661745845 
0.015625 1:1.0 2:-0.5555555555555556 3:0.9267822736030829 4:0.8729874776386404 5:0.8509638153297316 6:-0.9888995215311005 7:0.4965783777170667 8:-0.999552450215854 9:-0.9990096692797736 
0.015625 1:1.0 2:-0.5555555555555556 3:0.9267822736030829 4:0.8729874776386404 5:0.8509638153297316 6:-0.9888995215311005 7:0.7110815498942955 8:-0.99960040226387 9:-0.999125287600573 
0.015625 1:1.0 2:-0.5555555555555556 3:0.9267822736030829 4:0.8729874776386404 5:0.8509638153297316 6:-0.9888995215311005 7:0.6920997472688992 8:-0.9994405621038169 9:-0.9988422220565469 
0.015625 1:1.0 2:-0.5555555555555556 3:0.9267822736030829 4:0.8729874776386404 5:0.8509638153297316 6:-0.9888995215311005 7:0.6916828036969258 8:-0.9997282743919125 9:-0.9993860268481688 
0.015625 1:1.0 2:-0.5555555555555556 3:0.9267822736030829 4:0.8872987477638641 5:0.8861300852454386 6:-0.9888995215311005 7:-0.24904666546036747 8:-0.9988278414902801 9:-0.997727501970495 
0.015625 1:1.0 2:-0.5555555555555556 3:0.9267822736030829 4:0.8872987477638641 5:0.8861300852454386 6:-0.9888995215311005 7:-0.24886911646081056 8:-0.999327341990446 9:-0.9987202247939103 
0.015625 1:1.0 2:-0.5555555555555556 3:0.9267822736030829 4:0.8872987477638641 5:0.8861300852454386 6:-0.9888995215311005 7:-0.1884740804590802 8:-0.998401601063472 9:-0.9933411820896856 
-0.015625 1:1.0 2:1.0 3:-0.9421965317919075 4:-0.2927847346451997 5:-0.9996983905839911 6:0.877511961722488 7:0.8707940167626387 8:-0.9980925767540361 9:-0.8277773414404368 
-0.015625 1:-1.0 2:1.0 3:-0.9421965317919075 4:-0.9910554561717353 5:-0.9996490510523833 6:0.877511961722488 7:0.8709456517583671 8:-0.9999724968364602 9:-0.99563760115108 
-0.015625 1:-1.0 2:1.0 3:-0.9421965317919075 4:-0.9910554561717353 5:-0.9996490510523833 6:0.877511961722488 7:-0.24887089175330757 8:-0.9999981378621354 9:-0.999310276913852 
-0.015625 1:1.0 2:1.0 3:-0.9421965317919075 4:-0.9910554561717353 5:-0.9996206326979358 6:0.877511961722488 7:0.7627603364268813 8:-0.9999232793871772 9:-0.997926046535178 
-0.015625 1:1.0 2:1.0 3:-0.9421965317919075 4:-0.9910554561717353 5:-0.9996175933017382 6:0.877511961722488 7:0.7627603364268813 8:-0.9987436590059856 9:-0.9629654584286353 
-0.015625 1:1.0 2:1.0 3:-0.9421965317919075 4:-0.2748956469886702 5:-0.9996139966829043 6:0.877511961722488 7:0.8716018055707799 8:-0.9996163862798753 9:-0.9914027811389042 
-0.015625 1:1.0 2:-0.8 3:-0.8766859344894027 4:-0.9809183064997018 5:-0.9965414710667465 6:-1.0 7:-0.46691168204773836 8:-0.9999334025973139 9:-0.9473346588242892 
-0.015625 1:1.0 2:-0.8 3:-0.9614643545279383 4:-0.9940369707811568 5:-0.9965371145988633 6:-1.0 7:-0.46684584919865224 8:-0.9996670023305588 9:-0.9843006267709039 
-0.015625 1:1.0 2:-0.8 3:-0.9614643545279383 4:-0.9940369707811568 5:-0.9965141671575714 6:-1.0 7:-0.46653665425077784 8:-0.9996670023305588 9:-0.9742617670545993 
-0.015625 1:1.0 2:-1.0 3:-0.9653179190751445 4:-0.9946332737030411 5:-0.9964889401691313 6:-1.0 7:0.25134884019290826 8:-0.9995757602391951 9:-0.9979691043925792 
